{"learner":{"attributes":{"scikit_learn":"{\"_estimator_type\": \"regressor\"}"},"feature_names":["harvest_area","adm_id","harvest_year_enc","crop_name_enc","crop_area_percentage","awc","bulk_density","drainage_class","ssm","rsm","ndvi","tmin","tmax","prec","rad","tavg","et0","vpd","cwb","fpar"],"feature_types":["float","int","int","int","float","float","float","int","float","float","float","float","float","float","float","float","float","float","float","float"],"gradient_booster":{"model":{"cats":{"enc":[],"feature_segments":[],"sorted_idx":[]},"gbtree_model_param":{"num_parallel_tree":"1","num_trees":"100"},"iteration_indptr":[0,1,2,3,4,5,6,7,8,9,10,11,12,13,14,15,16,17,18,19,20,21,22,23,24,25,26,27,28,29,30,31,32,33,34,35,36,37,38,39,40,41,42,43,44,45,46,47,48,49,50,51,52,53,54,55,56,57,58,59,60,61,62,63,64,65,66,67,68,69,70,71,72,73,74,75,76,77,78,79,80,81,82,83,84,85,86,87,88,89,90,91,92,93,94,95,96,97,98,99,100],"tree_info":[0,0,0,0,0,0,0,0,0,0,0,0,0,0,0,0,0,0,0,0,0,0,0,0,0,0,0,0,0,0,0,0,0,0,0,0,0,0,0,0,0,0,0,0,0,0,0,0,0,0,0,0,0,0,0,0,0,0,0,0,0,0,0,0,0,0,0,0,0,0,0,0,0,0,0,0,0,0,0,0,0,0,0,0,0,0,0,0,0,0,0,0,0,0,0,0,0,0,0,0],"trees":[{"base_weights":[8.95745E-8,-4.348322E-1,4.3483236E-1,-7.441402E-1,-2.4212027E-1,2.4134818E-1,7.641167E-1,-1.0557588E0,-6.493611E-1,-3.6053154E-1,-1.1982089E-1,1.3252814E-1,3.8335195E-1,6.052365E-1,1.060367E0,-1.2723239E-1,-9.0717115E-2,-7.389209E-2,-5.7184394E-2,-4.412492E-1,-3.1424683E-1,-2.0336868E-1,-6.462656E-2,3.5157837E-2,1.90755E-1,2.613982E-1,4.320206E-1,4.8725137E-1,6.797286E-1,9.520629E-2,1.3259503E-1,-5.1161643E-2,-4.0056236E-2,-3.8072485E-2,-2.738997E-1,-2.4806798E-1,-1.2743904E-1,-1.355039E-1,-1.8010556E-3,-2.7872974E-2,8.90462E-2,1.1583753E-1,2.4438855E-1,1.7871642E-1,3.0543834E-1,3.7646675E-1,4.975606E-2,4.31194E-2,5.910876E-2,6.1128896E-2,7.622309E-2,-3.0605568E-2,-2.2600284E-2,-2.5857044E-2,-1.1045079E-2,-1.422884E-2,-6.378123E-3,-1.7338159E-2,-9.904424E-3,-3.5167902E-3,2.7727808E-3,-6.631131E-3,1.2442352E-4,1.338526E-3,1.080791E-2,7.219507E-3,1.5048732E-2,1.7089231E-2,2.7468005E-2,8.923688E-3,1.9151077E-2,1.9350274E-2,3.2671053E-2,3.13863E-2,4.0663563E-2],"categories":[],"categories_nodes":[],"categories_segments":[],"categories_sizes":[],"default_left":[0,0,0,0,0,0,0,0,0,0,0,0,0,0,0,0,0,0,0,0,0,0,0,0,0,0,0,0,0,0,0,0,0,0,0,0,0,0,0,0,0,0,0,0,0,0,0,0,0,0,0,0,0,0,0,0,0,0,0,0,0,0,0,0,0,0,0,0,0,0,0,0,0,0,0],"id":0,"left_children":[1,3,5,7,9,11,13,15,17,19,21,23,25,27,29,-1,-1,-1,-1,31,33,35,37,39,41,43,45,47,49,-1,-1,-1,-1,-1,51,53,55,57,59,61,63,65,67,69,71,73,-1,-1,-1,-1,-1,-1,-1,-1,-1,-1,-1,-1,-1,-1,-1,-1,-1,-1,-1,-1,-1,-1,-1,-1,-1,-1,-1,-1,-1],"loss_changes":[3.0290472E2,4.7565323E1,5.0848343E1,8.381668E0,7.125202E0,7.768343E0,1.3290451E1,1.0983047E0,1.229744E0,7.990761E-1,1.116641E0,1.6261287E0,1.1869049E0,1.3826523E0,1.6715088E0,0E0,0E0,0E0,0E0,4.9873352E-2,3.3291817E-1,2.9760456E-1,6.632388E-1,3.7271434E-1,6.9494724E-1,1.8209839E-1,3.7703896E-1,2.049675E-1,1.9468689E-1,0E0,0E0,0E0,0E0,0E0,9.254837E-2,5.815983E-2,2.6845217E-2,7.949805E-2,7.979794E-2,5.716258E-2,8.351612E-2,1.05575204E-1,1.8459558E-1,1.1530936E-2,3.4406424E-2,3.857708E-2,0E0,0E0,0E0,0E0,0E0,0E0,0E0,0E0,0E0,0E0,0E0,0E0,0E0,0E0,0E0,0E0,0E0,0E0,0E0,0E0,0E0,0E0,0E0,0E0,0E0,0E0,0E0,0E0,0E0],"parents":[2147483647,0,0,1,1,2,2,3,3,4,4,5,5,6,6,7,7,8,8,9,9,10,10,11,11,12,12,13,13,14,14,19,19,20,20,21,21,22,22,23,23,24,24,25,25,26,26,27,27,28,28,34,34,35,35,36,36,37,37,38,38,39,39,40,40,41,41,42,42,43,43,44,44,45,45],"right_children":[2,4,6,8,10,12,14,16,18,20,22,24,26,28,30,-1,-1,-1,-1,32,34,36,38,40,42,44,46,48,50,-1,-1,-1,-1,-1,52,54,56,58,60,62,64,66,68,70,72,74,-1,-1,-1,-1,-1,-1,-1,-1,-1,-1,-1,-1,-1,-1,-1,-1,-1,-1,-1,-1,-1,-1,-1,-1,-1,-1,-1,-1,-1],"split_conditions":[1.0129538E0,8.037336E-1,1.2169309E0,6.500045E-1,9.14187E-1,1.1178603E0,1.345719E0,5.608561E-1,7.346346E-1,8.440068E-1,1E0,1E0,1E0,1E0,1.4898189E0,-1.2723239E-1,-9.0717115E-2,-7.389209E-2,-5.7184394E-2,1E0,1E0,9.7381014E-1,9.596228E-1,1.066129E0,1.0598359E0,1.1567556E0,1.1663275E0,1.2943814E0,1.2657688E0,9.520629E-2,1.3259503E-1,-5.1161643E-2,-4.0056236E-2,-3.8072485E-2,8.785058E-1,9.2724005E2,8.816081E2,7.921989E2,9.8411256E-1,1.0337858E0,7.4451404E2,8.0580286E2,7.577765E2,7.103334E2,7.1704645E2,7.630679E2,4.975606E-2,4.31194E-2,5.910876E-2,6.1128896E-2,7.622309E-2,-3.0605568E-2,-2.2600284E-2,-2.5857044E-2,-1.1045079E-2,-1.422884E-2,-6.378123E-3,-1.7338159E-2,-9.904424E-3,-3.5167902E-3,2.7727808E-3,-6.631131E-3,1.2442352E-4,1.338526E-3,1.080791E-2,7.219507E-3,1.5048732E-2,1.7089231E-2,2.7468005E-2,8.923688E-3,1.9151077E-2,1.9350274E-2,3.2671053E-2,3.13863E-2,4.0663563E-2],"split_indices":[0,0,0,0,0,0,0,0,0,0,2,2,2,2,0,0,0,0,0,2,2,0,0,0,0,0,0,0,0,0,0,0,0,0,0,13,13,13,0,0,13,13,13,13,13,13,0,0,0,0,0,0,0,0,0,0,0,0,0,0,0,0,0,0,0,0,0,0,0,0,0,0,0,0,0],"split_type":[0,0,0,0,0,0,0,0,0,0,0,0,0,0,0,0,0,0,0,0,0,0,0,0,0,0,0,0,0,0,0,0,0,0,0,0,0,0,0,0,0,0,0,0,0,0,0,0,0,0,0,0,0,0,0,0,0,0,0,0,0,0,0,0,0,0,0,0,0,0,0,0,0,0,0],"sum_hessian":[1.6E3,8E2,8E2,3.06E2,4.94E2,5.05E2,2.95E2,6.9E1,2.37E2,2.5E2,2.44E2,2.87E2,2.18E2,1.94E2,1.01E2,2.5E1,4.4E1,1.06E2,1.31E2,8.8E1,1.62E2,9.6E1,1.48E2,1.08E2,1.79E2,6.4E1,1.54E2,7.8E1,1.16E2,7.5E1,2.6E1,2.8E1,6E1,5.8E1,1.04E2,5.9E1,3.7E1,6.9E1,7.9E1,5E1,5.8E1,7.6E1,1.03E2,2.4E1,4E1,8.7E1,6.7E1,5.4E1,2.4E1,6.8E1,4.8E1,5.9E1,4.5E1,5.4E1,5E0,2.9E1,8E0,3.2E1,3.7E1,3.7E1,4.2E1,2.1E1,2.9E1,1.2E1,4.6E1,3.5E1,4.1E1,3.2E1,7.1E1,4E0,2E1,8E0,3.2E1,3.2E1,5.5E1],"tree_param":{"num_deleted":"0","num_feature":"20","num_nodes":"75","size_leaf_vector":"1"}},{"base_weights":[7.799184E-5,-3.9854568E-1,3.8596913E-1,-6.45056E-1,-2.061029E-1,1.9717361E-1,6.6653866E-1,-8.7782997E-1,-5.367171E-1,-3.0533904E-1,-1.1410546E-1,1.01343945E-1,3.1345093E-1,5.3269315E-1,9.5656365E-1,-1.1499851E-1,-7.8200035E-2,-5.9682775E-2,-4.6609837E-1,-3.6547655E-1,-2.7203852E-1,-1.876045E-1,-6.446607E-2,1.8319793E-2,1.5114823E-1,1.9688138E-1,3.589732E-1,4.2570227E-1,6.0036576E-1,8.5810935E-1,1.19826615E-1,-5.197528E-2,-4.1765496E-2,-4.0676348E-2,-3.19053E-2,-3.151155E-2,-2.1831293E-1,-2.2387628E-1,-1.1807769E-1,-1.2234266E-1,-6.4966646E-3,-4.8590343E-2,5.880691E-2,7.961418E-2,1.9331042E-1,1.3064973E-1,2.4476574E-1,2.8030723E-1,3.900368E-1,3.586887E-2,4.9867767E-1,5.5164434E-2,7.035061E-2,6.8130255E-2,9.050923E-2,-2.2516811E-2,-1.1223325E-2,-2.369461E-2,-1.234866E-2,-1.26470225E-2,-2.351606E-3,-1.7965024E-2,-1.00571355E-2,-2.3388744E-3,5.3031654E-3,-7.096489E-3,7.666131E-4,2.3812437E-3,1.0588036E-2,3.6729479E-3,1.1194869E-2,1.6462112E-2,2.4837865E-2,9.554134E-3,1.5704816E-2,1.8095424E-2,2.6913172E-2,1.0284337E-2,2.8578732E-2,3.1715367E-2,4.0992465E-2,3.6753755E-2,5.4026883E-2],"categories":[],"categories_nodes":[],"categories_segments":[],"categories_sizes":[],"default_left":[0,0,0,0,0,0,0,0,0,0,0,0,0,0,0,0,0,0,0,0,0,0,0,0,0,0,0,0,0,0,0,0,0,0,0,0,0,0,0,0,0,0,0,0,0,0,0,0,0,0,0,0,0,0,0,0,0,0,0,0,0,0,0,0,0,0,0,0,0,0,0,0,0,0,0,0,0,0,0,0,0,0,0],"id":1,"left_children":[1,3,5,7,9,11,13,15,17,19,21,23,25,27,29,-1,-1,-1,31,33,35,37,39,41,43,45,47,49,51,53,-1,-1,-1,-1,-1,-1,55,57,59,61,63,65,67,69,71,73,75,77,79,-1,81,-1,-1,-1,-1,-1,-1,-1,-1,-1,-1,-1,-1,-1,-1,-1,-1,-1,-1,-1,-1,-1,-1,-1,-1,-1,-1,-1,-1,-1,-1,-1,-1],"loss_changes":[2.4642819E2,3.7249092E1,4.298638E1,8.229233E0,4.0186443E0,5.4059296E0,1.2184097E1,1.9174042E0,7.321167E-1,3.2713318E-1,8.343458E-1,1.1095345E0,1.0967579E0,1.3807449E0,1.3990173E0,0E0,0E0,0E0,7.923126E-2,1.0137558E-2,2.5752735E-1,2.0809841E-1,4.6891516E-1,2.791753E-1,4.9130344E-1,1.7099524E-1,2.743206E-1,2.6615143E-1,2.9533768E-1,1.46865845E-2,0E0,0E0,0E0,0E0,0E0,0E0,2.2723436E-2,4.946494E-2,2.400875E-2,6.9268584E-2,7.263489E-2,4.9633846E-2,1.0290657E-1,8.4634185E-2,1.24997616E-1,1.1872739E-2,7.273197E-3,1.72894E-2,2.9434204E-2,0E0,2.5055885E-2,0E0,0E0,0E0,0E0,0E0,0E0,0E0,0E0,0E0,0E0,0E0,0E0,0E0,0E0,0E0,0E0,0E0,0E0,0E0,0E0,0E0,0E0,0E0,0E0,0E0,0E0,0E0,0E0,0E0,0E0,0E0,0E0],"parents":[2147483647,0,0,1,1,2,2,3,3,4,4,5,5,6,6,7,7,8,8,9,9,10,10,11,11,12,12,13,13,14,14,18,18,19,19,20,20,21,21,22,22,23,23,24,24,25,25,26,26,27,27,28,28,29,29,36,36,37,37,38,38,39,39,40,40,41,41,42,42,43,43,44,44,45,45,46,46,47,47,48,48,50,50],"right_children":[2,4,6,8,10,12,14,16,18,20,22,24,26,28,30,-1,-1,-1,32,34,36,38,40,42,44,46,48,50,52,54,-1,-1,-1,-1,-1,-1,56,58,60,62,64,66,68,70,72,74,76,78,80,-1,82,-1,-1,-1,-1,-1,-1,-1,-1,-1,-1,-1,-1,-1,-1,-1,-1,-1,-1,-1,-1,-1,-1,-1,-1,-1,-1,-1,-1,-1,-1,-1,-1],"split_conditions":[1.0085056E0,8.184873E-1,1.2017804E0,6.902664E-1,9.14187E-1,1.1045026E0,1.345719E0,5.608561E-1,7.7575195E-1,1E0,1E0,1E0,1E0,1E0,1.4898189E0,-1.1499851E-1,-7.8200035E-2,-5.9682775E-2,1E0,8.72484E-1,8.628993E-1,9.7381014E-1,9.596228E-1,1.0513036E0,1.0426971E0,1.1382198E0,1.1315761E0,1.2657688E0,1.2760376E0,1E0,1.19826615E-1,-5.197528E-2,-4.1765496E-2,-4.0676348E-2,-3.19053E-2,-3.151155E-2,9.5480774E2,8.991557E2,9.672279E2,7.36667E2,8.816081E2,8.570467E2,8.384935E2,7.9389246E2,8.42935E2,7.7776526E2,7.7285645E2,6.064415E2,7.301726E2,3.586887E-2,7.558737E2,5.5164434E-2,7.035061E-2,6.8130255E-2,9.050923E-2,-2.2516811E-2,-1.1223325E-2,-2.369461E-2,-1.234866E-2,-1.26470225E-2,-2.351606E-3,-1.7965024E-2,-1.00571355E-2,-2.3388744E-3,5.3031654E-3,-7.096489E-3,7.666131E-4,2.3812437E-3,1.0588036E-2,3.6729479E-3,1.1194869E-2,1.6462112E-2,2.4837865E-2,9.554134E-3,1.5704816E-2,1.8095424E-2,2.6913172E-2,1.0284337E-2,2.8578732E-2,3.1715367E-2,4.0992465E-2,3.6753755E-2,5.4026883E-2],"split_indices":[0,0,0,0,0,0,0,0,0,2,2,2,2,2,0,0,0,0,2,0,0,0,0,0,0,0,0,0,0,2,0,0,0,0,0,0,13,13,13,13,13,13,13,13,13,13,13,13,13,0,13,0,0,0,0,0,0,0,0,0,0,0,0,0,0,0,0,0,0,0,0,0,0,0,0,0,0,0,0,0,0,0,0],"split_type":[0,0,0,0,0,0,0,0,0,0,0,0,0,0,0,0,0,0,0,0,0,0,0,0,0,0,0,0,0,0,0,0,0,0,0,0,0,0,0,0,0,0,0,0,0,0,0,0,0,0,0,0,0,0,0,0,0,0,0,0,0,0,0,0,0,0,0,0,0,0,0,0,0,0,0,0,0,0,0,0,0,0,0],"sum_hessian":[1.6E3,7.87E2,8.13E2,3.44E2,4.43E2,4.87E2,3.26E2,1.07E2,2.37E2,2.12E2,2.31E2,2.68E2,2.19E2,2.25E2,1.01E2,2.5E1,8.2E1,1.24E2,1.13E2,7.2E1,1.4E2,9.2E1,1.39E2,1.01E2,1.67E2,6.3E1,1.56E2,9E1,1.35E2,7.5E1,2.6E1,4.9E1,6.4E1,3.4E1,3.8E1,7.5E1,6.5E1,5.9E1,3.3E1,6.9E1,7E1,3.8E1,6.3E1,6.3E1,1.04E2,2.8E1,3.5E1,4.7E1,1.09E2,5E1,4E1,9.6E1,3.9E1,1.9E1,5.6E1,6E1,5E0,5.1E1,8E0,3E1,3E0,1.7E1,5.2E1,5.5E1,1.5E1,2.7E1,1.1E1,3.7E1,2.6E1,2.8E1,3.5E1,7.1E1,3.3E1,1.4E1,1.4E1,1.2E1,2.3E1,2E0,4.5E1,2.7E1,8.2E1,1.2E1,2.8E1],"tree_param":{"num_deleted":"0","num_feature":"20","num_nodes":"83","size_leaf_vector":"1"}},{"base_weights":[2.0431973E-4,-3.5364577E-1,3.5405415E-1,-5.8155507E-1,-1.8081789E-1,2.090845E-1,6.464868E-1,-8.2312244E-1,-4.9563655E-1,-2.555547E-1,-7.34897E-2,1.2111335E-1,3.4233117E-1,5.3247887E-1,9.179285E-1,-1.0394096E-1,-7.223946E-2,-5.7261944E-2,-4.3780342E-1,-2.9506686E-1,-2.0326994E-1,-1.444365E-1,-2.4495076E-2,3.822223E-2,1.6881151E-1,2.3572408E-1,3.8356346E-1,4.2265078E-1,6.026053E-1,8.1260405E-2,1.0828777E-1,-4.8685003E-2,-3.91755E-2,-3.3304196E-2,-2.510517E-1,-2.6740667E-1,-1.591919E-1,-1.8112698E-1,-1.040425E-1,-5.368632E-2,2.4274072E-2,-2.357568E-2,8.270039E-2,1.0282173E-1,2.211645E-1,1.7477214E-1,2.6962078E-1,3.2387552E-1,4.2329246E-1,3.6387168E-2,4.981336E-2,5.311062E-2,6.951996E-2,-3.0074745E-2,-2.2568643E-2,-2.8636185E-2,-1.958038E-2,-1.8069873E-2,-1.1067088E-2,-1.9884305E-2,-1.2469558E-2,-1.1323388E-2,-3.461762E-3,-8.117593E-3,-1.9571746E-3,-1.6211411E-3,4.8865895E-3,-4.160793E-3,2.2475577E-3,5.5367793E-3,1.2682602E-2,4.506765E-3,1.2339208E-2,1.8870136E-2,2.6674798E-2,1.0040192E-2,1.8834462E-2,2.727325E-2,7.724309E-3,2.3616774E-2,3.4126077E-2,3.582544E-2,4.6142932E-2],"categories":[],"categories_nodes":[],"categories_segments":[],"categories_sizes":[],"default_left":[0,0,0,0,0,0,0,0,0,0,0,0,0,0,0,0,0,0,0,0,0,0,0,0,0,0,0,0,0,0,0,0,0,0,0,0,0,0,0,0,0,0,0,0,0,0,0,0,0,0,0,0,0,0,0,0,0,0,0,0,0,0,0,0,0,0,0,0,0,0,0,0,0,0,0,0,0,0,0,0,0,0,0],"id":2,"left_children":[1,3,5,7,9,11,13,15,17,19,21,23,25,27,29,-1,-1,-1,31,33,35,37,39,41,43,45,47,49,51,-1,-1,-1,-1,-1,53,55,57,59,61,63,65,67,69,71,73,75,77,79,81,-1,-1,-1,-1,-1,-1,-1,-1,-1,-1,-1,-1,-1,-1,-1,-1,-1,-1,-1,-1,-1,-1,-1,-1,-1,-1,-1,-1,-1,-1,-1,-1,-1,-1],"loss_changes":[2.0058612E2,3.1445496E1,3.382232E1,6.7525406E0,3.646984E0,6.2531796E0,7.712044E0,1.1881027E0,8.935127E-1,4.957447E-1,6.534282E-1,1.2785172E0,8.458595E-1,1.2009621E0,4.5778656E-1,0E0,0E0,0E0,1.5031242E-1,1.6878319E-1,2.938466E-1,9.5274925E-2,1.621736E-1,3.3178857E-1,6.889415E-1,8.097386E-2,2.2334862E-1,1.603775E-1,3.7887955E-1,0E0,0E0,0E0,0E0,0E0,2.5405884E-2,7.7195168E-3,5.6179762E-2,1.4195085E-2,2.096641E-2,6.499477E-2,4.3603495E-2,4.328595E-2,7.740265E-2,1.0492504E-1,1.18359566E-1,6.3245296E-3,1.6813278E-3,1.8518448E-2,5.296135E-2,0E0,0E0,0E0,0E0,0E0,0E0,0E0,0E0,0E0,0E0,0E0,0E0,0E0,0E0,0E0,0E0,0E0,0E0,0E0,0E0,0E0,0E0,0E0,0E0,0E0,0E0,0E0,0E0,0E0,0E0,0E0,0E0,0E0,0E0],"parents":[2147483647,0,0,1,1,2,2,3,3,4,4,5,5,6,6,7,7,8,8,9,9,10,10,11,11,12,12,13,13,14,14,18,18,19,19,20,20,21,21,22,22,23,23,24,24,25,25,26,26,27,27,28,28,34,34,35,35,36,36,37,37,38,38,39,39,40,40,41,41,42,42,43,43,44,44,45,45,46,46,47,47,48,48],"right_children":[2,4,6,8,10,12,14,16,18,20,22,24,26,28,30,-1,-1,-1,32,34,36,38,40,42,44,46,48,50,52,-1,-1,-1,-1,-1,54,56,58,60,62,64,66,68,70,72,74,76,78,80,82,-1,-1,-1,-1,-1,-1,-1,-1,-1,-1,-1,-1,-1,-1,-1,-1,-1,-1,-1,-1,-1,-1,-1,-1,-1,-1,-1,-1,-1,-1,-1,-1,-1,-1],"split_conditions":[1.0129538E0,8.184873E-1,1.2273272E0,6.694606E-1,9.3547505E-1,1.1315761E0,1.3799189E0,5.608561E-1,7.507996E-1,8.9025015E-1,1E0,1E0,1E0,1E0,1.4898189E0,-1.0394096E-1,-7.223946E-2,-5.7261944E-2,1E0,8.2135614E2,1E0,7.960786E2,9.8411256E-1,1.066129E0,1.0675697E0,7.9389246E2,1.1688637E0,1.2943814E0,1.2943814E0,8.1260405E-2,1.0828777E-1,-4.8685003E-2,-3.91755E-2,-3.3304196E-2,1E0,8.4714856E2,8.443399E2,9.870035E-1,1.0036438E0,8.0712537E2,7.693162E2,8.570467E2,8.4545636E2,7.2310583E2,8.230954E2,1.1382198E0,2.63E1,7.299066E2,7.7493494E2,3.6387168E-2,4.981336E-2,5.311062E-2,6.951996E-2,-3.0074745E-2,-2.2568643E-2,-2.8636185E-2,-1.958038E-2,-1.8069873E-2,-1.1067088E-2,-1.9884305E-2,-1.2469558E-2,-1.1323388E-2,-3.461762E-3,-8.117593E-3,-1.9571746E-3,-1.6211411E-3,4.8865895E-3,-4.160793E-3,2.2475577E-3,5.5367793E-3,1.2682602E-2,4.506765E-3,1.2339208E-2,1.8870136E-2,2.6674798E-2,1.0040192E-2,1.8834462E-2,2.727325E-2,7.724309E-3,2.3616774E-2,3.4126077E-2,3.582544E-2,4.6142932E-2],"split_indices":[0,0,0,0,0,0,0,0,0,0,2,2,2,2,0,0,0,0,2,13,2,13,0,0,0,13,0,0,0,0,0,0,0,0,2,13,13,0,0,13,13,13,13,13,13,0,11,13,13,0,0,0,0,0,0,0,0,0,0,0,0,0,0,0,0,0,0,0,0,0,0,0,0,0,0,0,0,0,0,0,0,0,0],"split_type":[0,0,0,0,0,0,0,0,0,0,0,0,0,0,0,0,0,0,0,0,0,0,0,0,0,0,0,0,0,0,0,0,0,0,0,0,0,0,0,0,0,0,0,0,0,0,0,0,0,0,0,0,0,0,0,0,0,0,0,0,0,0,0,0,0,0,0,0,0,0,0,0,0,0,0,0,0,0,0,0,0,0,0],"sum_hessian":[1.6E3,8E2,8E2,3.44E2,4.56E2,5.36E2,2.64E2,8.8E1,2.56E2,2.68E2,1.88E2,3.24E2,2.12E2,1.88E2,7.6E1,2.5E1,6.3E1,1.06E2,1.5E2,1.5E2,1.18E2,7.6E1,1.12E2,1.19E2,2.05E2,6.1E1,1.51E2,7.6E1,1.12E2,5E1,2.6E1,6.8E1,8.2E1,7.7E1,7.3E1,4.6E1,7.2E1,3.8E1,3.8E1,7E1,4.2E1,5E1,6.9E1,9.2E1,1.13E2,2.4E1,3.7E1,6.4E1,8.7E1,4.6E1,3E1,6.7E1,4.5E1,2.1E1,5.2E1,3.4E1,1.2E1,4.8E1,2.4E1,2.7E1,1.1E1,3.3E1,5E0,3.8E1,3.2E1,1.6E1,2.6E1,3.6E1,1.4E1,4.4E1,2.5E1,2.5E1,6.7E1,6.9E1,4.4E1,5E0,1.9E1,3.6E1,1E0,1.3E1,5.1E1,3.6E1,5.1E1],"tree_param":{"num_deleted":"0","num_feature":"20","num_nodes":"83","size_leaf_vector":"1"}},{"base_weights":[2.726738E-4,-3.189535E-1,3.1949854E-1,-5.461128E-1,-1.7742455E-1,1.6473502E-1,5.4333085E-1,-8.5403085E-1,-4.9135068E-1,-2.662062E-1,-9.00583E-2,8.6002484E-2,2.5560227E-1,4.3821436E-1,7.917026E-1,-1.03099845E-1,-7.4991904E-2,-5.6954976E-2,-4.2277265E-1,-3.2486528E-1,-2.3125802E-1,-1.5204987E-1,-4.868188E-2,1.7976802E-2,1.2738937E-1,1.6136847E-1,2.9238802E-1,3.496044E-1,4.929229E-1,7.0830345E-1,9.7860046E-2,-4.2404436E-2,-1.2046135E-2,-3.7846647E-2,-2.9405711E-2,-2.827385E-2,-2.0072699E-1,-2.0259145E-1,-1.1195782E-1,-9.8302856E-2,2.2325485E-3,-3.6874443E-2,4.769269E-2,7.963501E-2,1.650135E-1,1.0985899E-1,1.9837976E-1,2.313572E-1,3.1636158E-1,3.0896172E-1,4.4089116E-2,4.3556446E-1,5.5702437E-2,5.4992896E-2,7.5254984E-2,-2.3924083E-2,-1.7609458E-2,-2.0557776E-2,-3.8583279E-3,-1.3622648E-2,-7.1901134E-3,-1.396464E-2,-7.574064E-3,-1.99919E-3,3.3415915E-3,-5.5319015E-3,8.397254E-4,1.9521298E-5,7.2567672E-3,1.0844942E-2,4.607551E-3,1.3539654E-2,2.102722E-2,8.025552E-3,1.3213852E-2,1.4686515E-2,2.1801768E-2,8.3407005E-3,2.3597663E-2,2.205066E-2,3.2478478E-2,2.4736712E-2,3.2990906E-2,3.4335013E-2,4.590432E-2],"categories":[],"categories_nodes":[],"categories_segments":[],"categories_sizes":[],"default_left":[0,0,0,0,0,0,0,0,0,0,0,0,0,0,0,0,0,0,0,0,0,0,0,0,0,0,0,0,0,0,0,0,0,0,0,0,0,0,0,0,0,0,0,0,0,0,0,0,0,0,0,0,0,0,0,0,0,0,0,0,0,0,0,0,0,0,0,0,0,0,0,0,0,0,0,0,0,0,0,0,0,0,0,0,0],"id":3,"left_children":[1,3,5,7,9,11,13,15,17,19,21,23,25,27,29,-1,-1,-1,31,33,35,37,39,41,43,45,47,49,51,53,-1,-1,-1,-1,-1,-1,55,57,59,61,63,65,67,69,71,73,75,77,79,81,-1,83,-1,-1,-1,-1,-1,-1,-1,-1,-1,-1,-1,-1,-1,-1,-1,-1,-1,-1,-1,-1,-1,-1,-1,-1,-1,-1,-1,-1,-1,-1,-1,-1,-1],"loss_changes":[1.6325221E2,2.5654945E1,2.7657997E1,4.75708E0,3.8155031E0,3.3762665E0,8.190369E0,5.5934906E-2,1.1696129E0,4.2712784E-1,6.3641024E-1,7.184447E-1,7.1543884E-1,9.52343E-1,8.03215E-1,0E0,0E0,0E0,4.278183E-3,3.5679817E-2,1.9001198E-1,1.7995E-1,3.8423583E-1,1.6149408E-1,2.7253723E-1,1.0021794E-1,1.5651798E-1,2.0511436E-1,2.758026E-1,7.66716E-2,0E0,0E0,0E0,0E0,0E0,0E0,5.4637432E-2,1.3128638E-2,4.6588182E-2,6.124884E-2,5.333856E-2,2.9690124E-2,7.560179E-2,6.462699E-2,8.9487314E-2,8.522123E-3,4.3997765E-3,1.3123274E-2,1.7197609E-2,4.837513E-3,0E0,1.3428688E-2,0E0,0E0,0E0,0E0,0E0,0E0,0E0,0E0,0E0,0E0,0E0,0E0,0E0,0E0,0E0,0E0,0E0,0E0,0E0,0E0,0E0,0E0,0E0,0E0,0E0,0E0,0E0,0E0,0E0,0E0,0E0,0E0,0E0],"parents":[2147483647,0,0,1,1,2,2,3,3,4,4,5,5,6,6,7,7,8,8,9,9,10,10,11,11,12,12,13,13,14,14,18,18,19,19,20,20,21,21,22,22,23,23,24,24,25,25,26,26,27,27,28,28,29,29,36,36,37,37,38,38,39,39,40,40,41,41,42,42,43,43,44,44,45,45,46,46,47,47,48,48,49,49,51,51],"right_children":[2,4,6,8,10,12,14,16,18,20,22,24,26,28,30,-1,-1,-1,32,34,36,38,40,42,44,46,48,50,52,54,-1,-1,-1,-1,-1,-1,56,58,60,62,64,66,68,70,72,74,76,78,80,82,-1,84,-1,-1,-1,-1,-1,-1,-1,-1,-1,-1,-1,-1,-1,-1,-1,-1,-1,-1,-1,-1,-1,-1,-1,-1,-1,-1,-1,-1,-1,-1,-1,-1,-1],"split_conditions":[1.0129538E0,8.037336E-1,1.2017804E0,6.135872E-1,9.084562E-1,1.1045026E0,1.3512101E0,4.815688E-1,7.286679E-1,8.440068E-1,1E0,1E0,1E0,1E0,1.4898189E0,-1.03099845E-1,-7.4991904E-2,-5.6954976E-2,1.01103424E3,1E0,1E0,9.542214E-1,9.6005875E-1,1.0513036E0,1.0565408E0,1.1382198E0,1.1315761E0,1.2943814E0,1.256465E0,1E0,9.7860046E-2,-4.2404436E-2,-1.2046135E-2,-3.7846647E-2,-2.9405711E-2,-2.827385E-2,7.5239197E2,1.0025091E3,8.1902686E2,7.4872723E2,8.0712537E2,8.570467E2,7.82038E2,2E0,8.230954E2,7.7776526E2,7.7285645E2,6.064415E2,6.669686E2,7.5239197E2,4.4089116E-2,7.250542E2,5.5702437E-2,5.4992896E-2,7.5254984E-2,-2.3924083E-2,-1.7609458E-2,-2.0557776E-2,-3.8583279E-3,-1.3622648E-2,-7.1901134E-3,-1.396464E-2,-7.574064E-3,-1.99919E-3,3.3415915E-3,-5.5319015E-3,8.397254E-4,1.9521298E-5,7.2567672E-3,1.0844942E-2,4.607551E-3,1.3539654E-2,2.102722E-2,8.025552E-3,1.3213852E-2,1.4686515E-2,2.1801768E-2,8.3407005E-3,2.3597663E-2,2.205066E-2,3.2478478E-2,2.4736712E-2,3.2990906E-2,3.4335013E-2,4.590432E-2],"split_indices":[0,0,0,0,0,0,0,0,0,0,2,2,2,2,0,0,0,0,13,2,2,0,0,0,0,0,0,0,0,2,0,0,0,0,0,0,13,13,13,13,13,13,13,2,13,13,13,13,13,13,0,13,0,0,0,0,0,0,0,0,0,0,0,0,0,0,0,0,0,0,0,0,0,0,0,0,0,0,0,0,0,0,0,0,0],"split_type":[0,0,0,0,0,0,0,0,0,0,0,0,0,0,0,0,0,0,0,0,0,0,0,0,0,0,0,0,0,0,0,0,0,0,0,0,0,0,0,0,0,0,0,0,0,0,0,0,0,0,0,0,0,0,0,0,0,0,0,0,0,0,0,0,0,0,0,0,0,0,0,0,0,0,0,0,0,0,0,0,0,0,0,0,0],"sum_hessian":[1.6E3,8E2,8E2,3.06E2,4.94E2,4.74E2,3.26E2,4.4E1,2.62E2,2.44E2,2.5E2,2.55E2,2.19E2,2.31E2,9.5E1,1.3E1,3.1E1,1.19E2,1.43E2,8.8E1,1.56E2,9.9E1,1.51E2,9.7E1,1.58E2,6.3E1,1.56E2,9.1E1,1.4E2,6.9E1,2.6E1,1.42E2,1E0,2.8E1,6E1,5.5E1,1.01E2,4.2E1,5.7E1,7.6E1,7.5E1,3.4E1,6.3E1,7.1E1,8.7E1,2.8E1,3.5E1,4.7E1,1.09E2,6.6E1,2.5E1,7.8E1,6.2E1,1.8E1,5.1E1,3.6E1,6.5E1,4.1E1,1E0,3.4E1,2.3E1,2.5E1,5.1E1,4.4E1,3.1E1,2.4E1,1E1,2.2E1,4.1E1,3.7E1,3.4E1,5.5E1,3.2E1,1.4E1,1.4E1,1.2E1,2.3E1,2E0,4.5E1,1.1E1,9.8E1,2E1,4.6E1,1.9E1,5.9E1],"tree_param":{"num_deleted":"0","num_feature":"20","num_nodes":"85","size_leaf_vector":"1"}},{"base_weights":[3.5199535E-4,-3.041079E-1,2.731044E-1,-5.147195E-1,-1.8695782E-1,1.3565528E-1,4.9042243E-1,-7.963156E-2,-4.651636E-1,-2.5959927E-1,-1.0568281E-1,4.75049E-2,2.1309383E-1,3.860122E-1,6.957015E-1,-5.3881865E-2,-4.1108823E-1,-3.061623E-1,-2.172285E-1,-1.5764463E-1,-6.85002E-2,-1.3320195E-2,8.376898E-2,1.3056406E-1,2.4852058E-1,3.0614585E-1,4.3535325E-1,6.44426E-1,9.7406626E-2,-4.5005016E-2,-3.7811443E-2,-3.5237934E-2,-2.7476847E-2,-2.508259E-1,-1.8199116E-1,-1.914274E-1,-1.11553624E-1,-1.1641344E-1,-3.1849805E-2,-5.7237633E-2,1.5934544E-2,4.4846583E-2,1.1872508E-1,9.2679046E-2,1.7955536E-1,1.9688718E-1,2.8522104E-1,2.431281E-1,3.41985E-1,3.632788E-2,4.7051862E-2,5.0968546E-2,6.87811E-2,-2.8513098E-2,-2.2280058E-2,-1.8700259E-2,-7.843971E-3,-2.2007374E-2,-1.5696744E-2,-1.2449063E-2,-4.884818E-3,-1.4259866E-2,-8.9863455E-3,-5.47787E-3,1.0840332E-5,-8.389035E-3,-2.7572408E-3,-8.520135E-4,3.7412604E-3,-2.8332797E-5,6.273359E-3,7.4134367E-3,1.3882183E-2,6.901096E-3,1.3456352E-2,1.3330831E-2,1.9712439E-2,1.5412922E-2,2.2792881E-2,2.3059273E-2,3.0021349E-2,1.3602885E-2,2.5255933E-2,2.8646544E-2,3.8483843E-2],"categories":[],"categories_nodes":[],"categories_segments":[],"categories_sizes":[],"default_left":[0,0,0,0,0,0,0,0,0,0,0,0,0,0,0,0,0,0,0,0,0,0,0,0,0,0,0,0,0,0,0,0,0,0,0,0,0,0,0,0,0,0,0,0,0,0,0,0,0,0,0,0,0,0,0,0,0,0,0,0,0,0,0,0,0,0,0,0,0,0,0,0,0,0,0,0,0,0,0,0,0,0,0,0,0],"id":4,"left_children":[1,3,5,7,9,11,13,-1,15,17,19,21,23,25,27,-1,29,31,33,35,37,39,41,43,45,47,49,51,-1,-1,-1,-1,-1,53,55,57,59,61,63,65,67,69,71,73,75,77,79,81,83,-1,-1,-1,-1,-1,-1,-1,-1,-1,-1,-1,-1,-1,-1,-1,-1,-1,-1,-1,-1,-1,-1,-1,-1,-1,-1,-1,-1,-1,-1,-1,-1,-1,-1,-1,-1],"loss_changes":[1.3303357E2,1.8581352E1,2.517376E1,3.3973618E0,2.8536835E0,3.5326948E0,6.74012E0,0E0,7.0253754E-1,4.4053078E-1,4.3744326E-1,5.3932273E-1,7.7450943E-1,7.297287E-1,9.280739E-1,0E0,7.12204E-3,7.728863E-2,1.1772776E-1,1.2812543E-1,2.3686963E-1,1.1911301E-1,2.0284343E-1,1.411221E-1,3.0767822E-1,1.1334324E-1,1.6616249E-1,2.0478058E-1,0E0,0E0,0E0,0E0,0E0,1.8486977E-3,2.2176266E-2,1.8761754E-2,2.8801382E-2,2.8203309E-2,5.7894498E-2,2.694133E-2,2.973215E-2,5.9753478E-2,6.1398864E-2,4.0279925E-2,2.9722452E-3,7.5033665E-2,2.0864487E-2,9.973049E-4,1.5854836E-2,0E0,0E0,0E0,0E0,0E0,0E0,0E0,0E0,0E0,0E0,0E0,0E0,0E0,0E0,0E0,0E0,0E0,0E0,0E0,0E0,0E0,0E0,0E0,0E0,0E0,0E0,0E0,0E0,0E0,0E0,0E0,0E0,0E0,0E0,0E0,0E0],"parents":[2147483647,0,0,1,1,2,2,3,3,4,4,5,5,6,6,8,8,9,9,10,10,11,11,12,12,13,13,14,14,16,16,17,17,18,18,19,19,20,20,21,21,22,22,23,23,24,24,25,25,26,26,27,27,33,33,34,34,35,35,36,36,37,37,38,38,39,39,40,40,41,41,42,42,43,43,44,44,45,45,46,46,47,47,48,48],"right_children":[2,4,6,8,10,12,14,-1,16,18,20,22,24,26,28,-1,30,32,34,36,38,40,42,44,46,48,50,52,-1,-1,-1,-1,-1,54,56,58,60,62,64,66,68,70,72,74,76,78,80,82,84,-1,-1,-1,-1,-1,-1,-1,-1,-1,-1,-1,-1,-1,-1,-1,-1,-1,-1,-1,-1,-1,-1,-1,-1,-1,-1,-1,-1,-1,-1,-1,-1,-1,-1,-1,-1],"split_conditions":[9.941016E-1,7.8847957E-1,1.2017804E0,6.046312E-1,9.005317E-1,1.0849113E0,1.3394428E0,-7.963156E-2,7.100953E-1,8.3954453E-1,1E0,1E0,1E0,1E0,1.5421588E0,-5.3881865E-2,1E0,1E0,7.975925E2,9.542214E-1,9.369211E-1,1.0337858E0,1.035314E0,1.1382198E0,1.1315761E0,1.2497402E0,7.785462E2,1E0,9.7406626E-2,-4.5005016E-2,-3.7811443E-2,-3.5237934E-2,-2.7476847E-2,1E0,1.0025091E3,7.8535364E2,9.132869E2,7.921989E2,8.1957E2,8.151851E2,8.0218427E2,7.56638E2,7.6386646E2,8.6414197E2,7.7285645E2,7.8535364E2,7.301726E2,7.003248E2,8.034223E2,3.632788E-2,4.7051862E-2,5.0968546E-2,6.87811E-2,-2.8513098E-2,-2.2280058E-2,-1.8700259E-2,-7.843971E-3,-2.2007374E-2,-1.5696744E-2,-1.2449063E-2,-4.884818E-3,-1.4259866E-2,-8.9863455E-3,-5.47787E-3,1.0840332E-5,-8.389035E-3,-2.7572408E-3,-8.520135E-4,3.7412604E-3,-2.8332797E-5,6.273359E-3,7.4134367E-3,1.3882183E-2,6.901096E-3,1.3456352E-2,1.3330831E-2,1.9712439E-2,1.5412922E-2,2.2792881E-2,2.3059273E-2,3.0021349E-2,1.3602885E-2,2.5255933E-2,2.8646544E-2,3.8483843E-2],"split_indices":[0,0,0,0,0,0,0,0,0,0,2,2,2,2,0,0,2,2,13,0,0,0,0,0,0,0,13,2,0,0,0,0,0,2,13,13,13,13,13,13,13,13,13,13,13,13,13,13,13,0,0,0,0,0,0,0,0,0,0,0,0,0,0,0,0,0,0,0,0,0,0,0,0,0,0,0,0,0,0,0,0,0,0,0,0],"split_type":[0,0,0,0,0,0,0,0,0,0,0,0,0,0,0,0,0,0,0,0,0,0,0,0,0,0,0,0,0,0,0,0,0,0,0,0,0,0,0,0,0,0,0,0,0,0,0,0,0,0,0,0,0,0,0,0,0,0,0,0,0,0,0,0,0,0,0,0,0,0,0,0,0,0,0,0,0,0,0,0,0,0,0,0,0],"sum_hessian":[1.6E3,7.56E2,8.44E2,2.69E2,4.87E2,5.18E2,3.26E2,3.8E1,2.31E2,2.56E2,2.31E2,2.43E2,2.75E2,2.18E2,1.08E2,9.4E1,1.37E2,1.19E2,1.37E2,9.5E1,1.36E2,9.1E1,1.52E2,8.4E1,1.91E2,8.6E1,1.32E2,9.4E1,1.4E1,5.7E1,8E1,4.4E1,7.5E1,6.7E1,7E1,5.3E1,4.2E1,5.8E1,7.8E1,3.6E1,5.5E1,7.3E1,7.9E1,4.9E1,3.5E1,8.2E1,1.09E2,3.4E1,5.2E1,4.7E1,8.5E1,2.6E1,6.8E1,2.6E1,4.1E1,6.6E1,4E0,2.6E1,2.7E1,3.4E1,8E0,2.7E1,3.1E1,4.5E1,3.3E1,1.8E1,1.8E1,2.6E1,2.9E1,2.1E1,5.2E1,2.6E1,5.3E1,3.3E1,1.6E1,1.2E1,2.3E1,3.7E1,4.5E1,2.7E1,8.2E1,4E0,3E1,2.6E1,2.6E1],"tree_param":{"num_deleted":"0","num_feature":"20","num_nodes":"85","size_leaf_vector":"1"}},{"base_weights":[3.9823583E-4,-2.742785E-1,2.4646911E-1,-4.640487E-1,-1.6872065E-1,1.2602618E-1,4.4871905E-1,-7.4616574E-2,-4.2298186E-1,-2.3418425E-1,-9.547552E-2,4.2833485E-2,1.960713E-1,3.7209764E-1,6.8071645E-1,-5.041447E-2,-3.7789693E-1,-2.7421585E-1,-1.9419818E-1,-1.4245348E-1,-6.185976E-2,-1.2077894E-2,7.557213E-2,1.2249175E-1,2.2783384E-1,2.938849E-1,4.190479E-1,6.2171217E-2,8.8315345E-2,-4.1383963E-2,-3.4871227E-1,-3.1824708E-2,-2.4582505E-1,-2.3861736E-2,-1.6927703E-1,-1.7298281E-1,-1.0080142E-1,-1.05166174E-1,-2.873396E-2,-5.589186E-2,1.2221086E-2,4.044639E-2,1.0711879E-1,8.639388E-2,1.7323601E-1,1.7765886E-1,2.611956E-1,2.5597912E-1,3.727383E-1,3.7023598E-1,5.0633825E-2,-3.527027E-2,-1.7174924E-2,-2.5541028E-2,-1.7603999E-2,-1.887292E-2,-1.23194E-2,-2.2140995E-2,-1.5222765E-2,-1.205247E-2,-6.3546724E-3,-1.2884812E-2,-8.115804E-3,-3.604447E-4,-5.44154E-3,-8.348073E-3,-3.1169502E-3,-1.34824E-3,2.9731253E-3,6.647523E-3,1.2620926E-3,8.683032E-3,1.4828022E-2,6.7815646E-3,1.3017624E-2,1.2100282E-2,1.9431083E-2,1.2557499E-2,1.9794373E-2,2.2877702E-2,2.897366E-2,2.0723045E-2,2.7564367E-2,3.7881393E-2,1.0434831E-2,2.4911227E-2,3.8116924E-2],"categories":[],"categories_nodes":[],"categories_segments":[],"categories_sizes":[],"default_left":[0,0,0,0,0,0,0,0,0,0,0,0,0,0,0,0,0,0,0,0,0,0,0,0,0,0,0,0,0,0,0,0,0,0,0,0,0,0,0,0,0,0,0,0,0,0,0,0,0,0,0,0,0,0,0,0,0,0,0,0,0,0,0,0,0,0,0,0,0,0,0,0,0,0,0,0,0,0,0,0,0,0,0,0,0,0,0],"id":5,"left_children":[1,3,5,7,9,11,13,-1,15,17,19,21,23,25,27,-1,29,31,33,35,37,39,41,43,45,47,49,-1,-1,-1,51,-1,53,-1,55,57,59,61,63,65,67,69,71,73,75,77,79,81,83,85,-1,-1,-1,-1,-1,-1,-1,-1,-1,-1,-1,-1,-1,-1,-1,-1,-1,-1,-1,-1,-1,-1,-1,-1,-1,-1,-1,-1,-1,-1,-1,-1,-1,-1,-1,-1,-1],"loss_changes":[1.08279106E2,1.5085728E1,2.052729E1,2.8125114E0,2.3175478E0,3.085867E0,5.346142E0,0E0,6.803856E-1,3.5812855E-1,3.575623E-1,4.3955743E-1,6.4517117E-1,7.5447845E-1,3.7067032E-1,0E0,2.0376205E-2,7.927799E-2,1.05728626E-1,1.0463762E-1,1.935128E-1,9.862946E-2,1.6520679E-1,1.4805996E-1,2.8838062E-1,1.8256283E-1,4.388752E-1,0E0,0E0,0E0,5.0964355E-3,0E0,9.21917E-3,0E0,5.563426E-2,2.057147E-2,2.3936778E-2,2.3087919E-2,5.0787464E-2,1.9905984E-2,2.7405187E-2,5.2756585E-2,5.3932905E-2,3.5095543E-2,1.6116738E-2,6.2834024E-2,4.2895317E-2,6.1473846E-3,6.1290264E-3,3.482437E-2,0E0,0E0,0E0,0E0,0E0,0E0,0E0,0E0,0E0,0E0,0E0,0E0,0E0,0E0,0E0,0E0,0E0,0E0,0E0,0E0,0E0,0E0,0E0,0E0,0E0,0E0,0E0,0E0,0E0,0E0,0E0,0E0,0E0,0E0,0E0,0E0,0E0],"parents":[2147483647,0,0,1,1,2,2,3,3,4,4,5,5,6,6,8,8,9,9,10,10,11,11,12,12,13,13,14,14,16,16,17,17,18,18,19,19,20,20,21,21,22,22,23,23,24,24,25,25,26,26,30,30,32,32,34,34,35,35,36,36,37,37,38,38,39,39,40,40,41,41,42,42,43,43,44,44,45,45,46,46,47,47,48,48,49,49],"right_children":[2,4,6,8,10,12,14,-1,16,18,20,22,24,26,28,-1,30,32,34,36,38,40,42,44,46,48,50,-1,-1,-1,52,-1,54,-1,56,58,60,62,64,66,68,70,72,74,76,78,80,82,84,86,-1,-1,-1,-1,-1,-1,-1,-1,-1,-1,-1,-1,-1,-1,-1,-1,-1,-1,-1,-1,-1,-1,-1,-1,-1,-1,-1,-1,-1,-1,-1,-1,-1,-1,-1,-1,-1],"split_conditions":[9.941016E-1,7.8847957E-1,1.2083712E0,5.9116423E-1,9.005317E-1,1.0849113E0,1.3799189E0,-7.4616574E-2,6.964534E-1,8.440068E-1,1E0,1E0,1E0,1E0,1.5421588E0,-5.041447E-2,1E0,1E0,1E0,9.542214E-1,9.369211E-1,1.0320518E0,1.035314E0,1.1455729E0,1.1315761E0,1.3030052E0,1.2860647E0,6.2171217E-2,8.8315345E-2,-4.1383963E-2,9.591161E2,-3.1824708E-2,8.912115E2,-2.3861736E-2,8.5574713E2,6.9807526E2,8.2715924E2,7.921989E2,2E0,8.081188E2,7.899918E2,2E0,8.397604E2,8.766432E2,7.7285645E2,7.577765E2,7.9942474E2,7.5239197E2,1.54E0,6.6189215E2,5.0633825E-2,-3.527027E-2,-1.7174924E-2,-2.5541028E-2,-1.7603999E-2,-1.887292E-2,-1.23194E-2,-2.2140995E-2,-1.5222765E-2,-1.205247E-2,-6.3546724E-3,-1.2884812E-2,-8.115804E-3,-3.604447E-4,-5.44154E-3,-8.348073E-3,-3.1169502E-3,-1.34824E-3,2.9731253E-3,6.647523E-3,1.2620926E-3,8.683032E-3,1.4828022E-2,6.7815646E-3,1.3017624E-2,1.2100282E-2,1.9431083E-2,1.2557499E-2,1.9794373E-2,2.2877702E-2,2.897366E-2,2.0723045E-2,2.7564367E-2,3.7881393E-2,1.0434831E-2,2.4911227E-2,3.8116924E-2],"split_indices":[0,0,0,0,0,0,0,0,0,0,2,2,2,2,0,0,2,2,2,0,0,0,0,0,0,0,0,0,0,0,13,0,13,0,13,13,13,13,2,13,13,2,13,13,13,13,13,13,6,13,0,0,0,0,0,0,0,0,0,0,0,0,0,0,0,0,0,0,0,0,0,0,0,0,0,0,0,0,0,0,0,0,0,0,0,0,0],"split_type":[0,0,0,0,0,0,0,0,0,0,0,0,0,0,0,0,0,0,0,0,0,0,0,0,0,0,0,0,0,0,0,0,0,0,0,0,0,0,0,0,0,0,0,0,0,0,0,0,0,0,0,0,0,0,0,0,0,0,0,0,0,0,0,0,0,0,0,0,0,0,0,0,0,0,0,0,0,0,0,0,0,0,0,0,0,0,0],"sum_hessian":[1.6E3,7.56E2,8.44E2,2.69E2,4.87E2,5.3E2,3.14E2,3.2E1,2.37E2,2.56E2,2.31E2,2.43E2,2.87E2,2.38E2,7.6E1,8.1E1,1.56E2,1.25E2,1.31E2,9.5E1,1.36E2,9.1E1,1.52E2,8.8E1,1.99E2,9.2E1,1.46E2,6.2E1,1.4E1,6.4E1,9.2E1,4.5E1,8E1,4.4E1,8.7E1,5.3E1,4.2E1,5.8E1,7.8E1,3.2E1,5.9E1,7.3E1,7.9E1,5.3E1,3.5E1,8.2E1,1.17E2,6.5E1,2.7E1,9.7E1,4.9E1,8.9E1,3E0,6.8E1,1.2E1,5.9E1,2.8E1,1.3E1,4E1,2.6E1,1.6E1,2.7E1,3.1E1,4E1,3.8E1,1.4E1,1.8E1,2.4E1,3.5E1,3.7E1,3.6E1,5.5E1,2.4E1,3.9E1,1.4E1,1.2E1,2.3E1,2.5E1,5.7E1,5.9E1,5.8E1,2.2E1,4.3E1,2.6E1,1E0,1E1,8.7E1],"tree_param":{"num_deleted":"0","num_feature":"20","num_nodes":"87","size_leaf_vector":"1"}},{"base_weights":[4.1238125E-4,-2.3804922E-1,2.3125677E-1,-4.1845444E-1,-1.4373814E-1,1.5943326E-1,5.003976E-1,-5.7999444E-1,-3.6011487E-1,-2.0696145E-1,-7.1634136E-2,7.736845E-2,2.4926542E-1,4.0746424E-1,6.255508E-1,-7.920325E-2,-5.177396E-2,-4.005055E-2,-3.2088846E-1,-2.456611E-1,-1.7030412E-1,-1.1592023E-1,-4.111388E-2,2.2610355E-2,1.08590014E-1,1.905825E-1,2.7711198E-1,3.241044E-1,4.5059253E-2,4.4853706E-2,6.7297107E-1,-3.2469846E-2,-1.7822502E-2,-2.8711421E-2,-2.2091967E-1,-2.1236257E-1,-1.4450409E-1,-1.4138433E-1,-7.311946E-2,-7.328536E-2,1.250919E-3,-2.010283E-2,5.5847708E-2,7.1794465E-2,1.5700369E-1,1.278274E-1,2.1874322E-1,2.2882275E-1,3.241047E-1,1.980689E-2,3.4617472E-2,5.6758296E-2,7.72518E-2,-2.3009902E-2,-1.566203E-2,-6.0301065E-3,-2.141272E-2,-1.745263E-2,-1.2589365E-2,-1.956351E-2,-1.2410588E-2,-7.890782E-3,-2.7443768E-4,-1.1852554E-2,-5.983676E-3,-2.5233761E-3,2.8524154E-3,-8.152223E-3,-1.2330447E-3,3.661839E-4,6.8828785E-3,9.633267E-3,4.1261264E-3,9.909349E-3,1.7171357E-2,9.4024865E-3,1.4678796E-2,1.41166E-2,2.266031E-2,2.0007906E-2,2.5427153E-2,2.7405951E-2,3.5073485E-2],"categories":[],"categories_nodes":[],"categories_segments":[],"categories_sizes":[],"default_left":[0,0,0,0,0,0,0,0,0,0,0,0,0,0,0,0,0,0,0,0,0,0,0,0,0,0,0,0,0,0,0,0,0,0,0,0,0,0,0,0,0,0,0,0,0,0,0,0,0,0,0,0,0,0,0,0,0,0,0,0,0,0,0,0,0,0,0,0,0,0,0,0,0,0,0,0,0,0,0,0,0,0,0],"id":6,"left_children":[1,3,5,7,9,11,13,15,17,19,21,23,25,27,29,-1,-1,-1,31,33,35,37,39,41,43,45,47,49,-1,-1,51,-1,-1,-1,53,55,57,59,61,63,65,67,69,71,73,75,77,79,81,-1,-1,-1,-1,-1,-1,-1,-1,-1,-1,-1,-1,-1,-1,-1,-1,-1,-1,-1,-1,-1,-1,-1,-1,-1,-1,-1,-1,-1,-1,-1,-1,-1,-1],"loss_changes":[8.8186134E1,1.334705E1,1.5655365E1,2.3356667E0,2.3511152E0,4.728319E0,1.7339935E0,5.139618E-1,1.899414E-1,3.497038E-1,3.250302E-1,5.754008E-1,4.4886208E-1,2.1707344E-1,2.941246E-1,0E0,0E0,0E0,2.9087067E-4,7.195139E-2,1.2665367E-1,9.756029E-2,1.9908066E-1,1.771622E-1,3.7173057E-1,1.5229607E-1,3.9330196E-1,3.713584E-2,0E0,0E0,1.2804985E-1,0E0,0E0,0E0,1.5311241E-2,1.3093948E-3,2.9989839E-2,3.2899976E-2,1.5670344E-2,4.3406487E-2,4.6948437E-2,2.5250426E-2,4.7167957E-2,8.892971E-2,6.1354637E-2,7.989287E-3,1.0084152E-2,2.5932312E-2,3.9813995E-2,0E0,0E0,0E0,0E0,0E0,0E0,0E0,0E0,0E0,0E0,0E0,0E0,0E0,0E0,0E0,0E0,0E0,0E0,0E0,0E0,0E0,0E0,0E0,0E0,0E0,0E0,0E0,0E0,0E0,0E0,0E0,0E0,0E0,0E0],"parents":[2147483647,0,0,1,1,2,2,3,3,4,4,5,5,6,6,7,7,8,8,9,9,10,10,11,11,12,12,13,13,14,14,18,18,19,19,20,20,21,21,22,22,23,23,24,24,25,25,26,26,27,27,30,30,34,34,35,35,36,36,37,37,38,38,39,39,40,40,41,41,42,42,43,43,44,44,45,45,46,46,47,47,48,48],"right_children":[2,4,6,8,10,12,14,16,18,20,22,24,26,28,30,-1,-1,-1,32,34,36,38,40,42,44,46,48,50,-1,-1,52,-1,-1,-1,54,56,58,60,62,64,66,68,70,72,74,76,78,80,82,-1,-1,-1,-1,-1,-1,-1,-1,-1,-1,-1,-1,-1,-1,-1,-1,-1,-1,-1,-1,-1,-1,-1,-1,-1,-1,-1,-1,-1,-1,-1,-1,-1,-1],"split_conditions":[1.0085056E0,7.8847957E-1,1.2760376E0,6.500045E-1,9.0709746E-1,1.1315761E0,1.3878582E0,4.815688E-1,7.286679E-1,8.477908E-1,1E0,1E0,1E0,1E0,1E0,-7.920325E-2,-5.177396E-2,-4.005055E-2,9.6945953E2,1E0,1E0,9.664366E-1,9.6276826E-1,1.066129E0,1.0799358E0,1.1929203E0,1.1929203E0,6.8502075E2,4.5059253E-2,4.4853706E-2,1.4736091E0,-3.2469846E-2,-1.7822502E-2,-2.8711421E-2,8.912115E2,1.03E1,7.5239197E2,6.953627E2,9.672279E2,7.250542E2,7.91088E2,6.819988E2,7.4451404E2,2E0,7.058619E2,7.7285645E2,7.007958E2,7.9942474E2,7.785462E2,1.980689E-2,3.4617472E-2,5.6758296E-2,7.72518E-2,-2.3009902E-2,-1.566203E-2,-6.0301065E-3,-2.141272E-2,-1.745263E-2,-1.2589365E-2,-1.956351E-2,-1.2410588E-2,-7.890782E-3,-2.7443768E-4,-1.1852554E-2,-5.983676E-3,-2.5233761E-3,2.8524154E-3,-8.152223E-3,-1.2330447E-3,3.661839E-4,6.8828785E-3,9.633267E-3,4.1261264E-3,9.909349E-3,1.7171357E-2,9.4024865E-3,1.4678796E-2,1.41166E-2,2.266031E-2,2.0007906E-2,2.5427153E-2,2.7405951E-2,3.5073485E-2],"split_indices":[0,0,0,0,0,0,0,0,0,0,2,2,2,2,2,0,0,0,13,2,2,0,0,0,0,0,0,13,0,0,0,0,0,0,13,8,13,13,13,13,13,13,13,2,13,13,13,13,13,0,0,0,0,0,0,0,0,0,0,0,0,0,0,0,0,0,0,0,0,0,0,0,0,0,0,0,0,0,0,0,0,0,0],"split_type":[0,0,0,0,0,0,0,0,0,0,0,0,0,0,0,0,0,0,0,0,0,0,0,0,0,0,0,0,0,0,0,0,0,0,0,0,0,0,0,0,0,0,0,0,0,0,0,0,0,0,0,0,0,0,0,0,0,0,0,0,0,0,0,0,0,0,0,0,0,0,0,0,0,0,0,0,0,0,0,0,0,0,0],"sum_hessian":[1.6E3,7.87E2,8.13E2,2.69E2,5.18E2,6.43E2,1.7E2,6.9E1,2E2,2.75E2,2.43E2,3.37E2,3.06E2,1E2,7E1,1.3E1,5.6E1,9.4E1,1.06E2,1.31E2,1.44E2,9.8E1,1.45E2,1.23E2,2.14E2,1.01E2,2.05E2,3.7E1,6.3E1,1.7E1,5.3E1,1.02E2,4E0,4.5E1,8.6E1,5.2E1,9.2E1,6E1,3.8E1,8.2E1,6.3E1,5.4E1,6.9E1,1.23E2,9.1E1,3.3E1,6.8E1,1.04E2,1.01E2,7E0,3E1,2.9E1,2.4E1,7.3E1,1.3E1,1E0,5.1E1,3.2E1,6E1,1.2E1,4.8E1,3.5E1,3E0,1.7E1,6.5E1,3.2E1,3.1E1,5E0,4.9E1,1.4E1,5.5E1,6.7E1,5.6E1,2E1,7.1E1,1.4E1,1.9E1,8E0,6E1,5.3E1,5.1E1,3.9E1,6.2E1],"tree_param":{"num_deleted":"0","num_feature":"20","num_nodes":"83","size_leaf_vector":"1"}},{"base_weights":[4.2234646E-4,-2.1134232E-1,2.1218649E-1,-3.7742877E-1,-1.2665306E-1,1.2412188E-1,3.8984123E-1,-6.1279982E-2,-3.4320745E-1,-1.867177E-1,-6.1655033E-2,6.398569E-2,1.929023E-1,3.201389E-1,5.558659E-1,-4.1370418E-2,-3.0823225E-1,-2.2018139E-1,-1.5215148E-1,-9.145179E-2,-2.3476193E-2,1.5834635E-2,9.2788346E-2,1.3234746E-1,2.1665286E-1,2.5627604E-1,3.6082298E-1,5.048812E-1,7.3294383E-1,-3.4112465E-2,-2.823351E-1,-2.5854737E-2,-1.9818811E-1,-1.9078195E-1,-1.2759538E-1,-1.2711355E-1,-6.520287E-2,-6.688753E-2,3.7572552E-3,-1.5749833E-2,4.286808E-2,5.153846E-2,1.1918471E-1,1.00874744E-1,1.6024321E-1,1.7885092E-1,2.5328153E-1,2.2877038E-2,3.2322872E-1,3.1691927E-2,4.178801E-2,3.8940374E-2,5.3590745E-2,1.997639E-2,7.567593E-2,-2.9693052E-2,-2.2246586E-2,-2.0641832E-2,-1.4217853E-2,-2.1925887E-2,-1.6259026E-2,-1.3835206E-2,-9.11808E-3,-1.5513881E-2,-1.0111957E-2,-1.073315E-2,-5.309231E-3,-9.660685E-3,-5.1308232E-3,-3.729753E-3,1.7372605E-3,-2.772162E-3,1.787E-3,2.3440467E-3,7.4476316E-3,5.513203E-4,6.793406E-3,7.6810094E-3,1.381888E-2,8.748425E-3,1.4576486E-2,9.990225E-3,1.709927E-2,2.0078879E-2,1.3975726E-2,2.2130856E-2,2.830303E-2,3.3084836E-2,8.922744E-3],"categories":[],"categories_nodes":[],"categories_segments":[],"categories_sizes":[],"default_left":[0,0,0,0,0,0,0,0,0,0,0,0,0,0,0,0,0,0,0,0,0,0,0,0,0,0,0,0,0,0,0,0,0,0,0,0,0,0,0,0,0,0,0,0,0,0,0,0,0,0,0,0,0,0,0,0,0,0,0,0,0,0,0,0,0,0,0,0,0,0,0,0,0,0,0,0,0,0,0,0,0,0,0,0,0,0,0,0,0],"id":7,"left_children":[1,3,5,7,9,11,13,-1,15,17,19,21,23,25,27,-1,29,31,33,35,37,39,41,43,45,47,49,51,53,-1,55,-1,57,59,61,63,65,67,69,71,73,75,77,79,81,83,85,-1,87,-1,-1,-1,-1,-1,-1,-1,-1,-1,-1,-1,-1,-1,-1,-1,-1,-1,-1,-1,-1,-1,-1,-1,-1,-1,-1,-1,-1,-1,-1,-1,-1,-1,-1,-1,-1,-1,-1,-1,-1],"loss_changes":[7.1840355E1,1.1218853E1,1.2483334E1,1.9644547E0,2.0654602E0,2.2087908E0,2.8887024E0,0E0,4.593048E-1,2.857523E-1,2.9021764E-1,3.979516E-1,3.308792E-1,3.985901E-1,3.2512665E-1,0E0,4.2533875E-2,6.5202236E-2,1.0751414E-1,1.2650776E-1,1.3502671E-1,9.37434E-2,1.8984997E-1,4.7926307E-2,2.0116615E-1,6.785631E-2,1.5063286E-1,1.703453E-2,3.9295197E-2,0E0,1.8703938E-2,0E0,1.3061285E-2,6.09684E-3,2.185452E-2,2.8021753E-2,3.7668616E-2,1.5415549E-2,4.0335193E-2,2.1022344E-2,3.448452E-2,5.3957507E-2,7.7162385E-2,9.488583E-3,6.9168806E-3,4.9982548E-2,2.1065235E-2,0E0,6.1392784E-3,0E0,0E0,0E0,0E0,0E0,0E0,0E0,0E0,0E0,0E0,0E0,0E0,0E0,0E0,0E0,0E0,0E0,0E0,0E0,0E0,0E0,0E0,0E0,0E0,0E0,0E0,0E0,0E0,0E0,0E0,0E0,0E0,0E0,0E0,0E0,0E0,0E0,0E0,0E0,0E0],"parents":[2147483647,0,0,1,1,2,2,3,3,4,4,5,5,6,6,8,8,9,9,10,10,11,11,12,12,13,13,14,14,16,16,17,17,18,18,19,19,20,20,21,21,22,22,23,23,24,24,25,25,26,26,27,27,28,28,30,30,32,32,33,33,34,34,35,35,36,36,37,37,38,38,39,39,40,40,41,41,42,42,43,43,44,44,45,45,46,46,48,48],"right_children":[2,4,6,8,10,12,14,-1,16,18,20,22,24,26,28,-1,30,32,34,36,38,40,42,44,46,48,50,52,54,-1,56,-1,58,60,62,64,66,68,70,72,74,76,78,80,82,84,86,-1,88,-1,-1,-1,-1,-1,-1,-1,-1,-1,-1,-1,-1,-1,-1,-1,-1,-1,-1,-1,-1,-1,-1,-1,-1,-1,-1,-1,-1,-1,-1,-1,-1,-1,-1,-1,-1,-1,-1,-1,-1],"split_conditions":[1.0129538E0,7.8847957E-1,1.2273272E0,5.9116423E-1,9.0709746E-1,1.1178603E0,1.3799189E0,-6.1279982E-2,6.902664E-1,8.502036E-1,9.648774E-1,1E0,1E0,1E0,1.5421588E0,-4.1370418E-2,1E0,1E0,1E0,1E0,1E0,1.066129E0,1.0565408E0,1.1830829E0,1.1688637E0,1.3169966E0,1.2943814E0,1E0,1.31E1,-3.4112465E-2,7.7243686E-1,-2.5854737E-2,8.912115E2,7.7941547E2,8.725004E2,7.739377E2,7.250542E2,7.719765E2,7.418693E2,8.655003E2,8.4545636E2,7.2310583E2,7.630679E2,9.007133E2,7.301726E2,2E0,8.0580286E2,2.2877038E-2,1.54E0,3.1691927E-2,4.178801E-2,3.8940374E-2,5.3590745E-2,1.997639E-2,7.567593E-2,-2.9693052E-2,-2.2246586E-2,-2.0641832E-2,-1.4217853E-2,-2.1925887E-2,-1.6259026E-2,-1.3835206E-2,-9.11808E-3,-1.5513881E-2,-1.0111957E-2,-1.073315E-2,-5.309231E-3,-9.660685E-3,-5.1308232E-3,-3.729753E-3,1.7372605E-3,-2.772162E-3,1.787E-3,2.3440467E-3,7.4476316E-3,5.513203E-4,6.793406E-3,7.6810094E-3,1.381888E-2,8.748425E-3,1.4576486E-2,9.990225E-3,1.709927E-2,2.0078879E-2,1.3975726E-2,2.2130856E-2,2.830303E-2,3.3084836E-2,8.922744E-3],"split_indices":[0,0,0,0,0,0,0,0,0,0,0,2,2,2,0,0,2,2,2,2,2,0,0,0,0,0,0,2,8,0,0,0,13,13,13,13,13,13,13,13,13,13,13,13,13,2,13,0,6,0,0,0,0,0,0,0,0,0,0,0,0,0,0,0,0,0,0,0,0,0,0,0,0,0,0,0,0,0,0,0,0,0,0,0,0,0,0,0,0],"split_type":[0,0,0,0,0,0,0,0,0,0,0,0,0,0,0,0,0,0,0,0,0,0,0,0,0,0,0,0,0,0,0,0,0,0,0,0,0,0,0,0,0,0,0,0,0,0,0,0,0,0,0,0,0,0,0,0,0,0,0,0,0,0,0,0,0,0,0,0,0,0,0,0,0,0,0,0,0,0,0,0,0,0,0,0,0,0,0,0,0],"sum_hessian":[1.6E3,8E2,8E2,2.69E2,5.31E2,5.36E2,2.64E2,3.2E1,2.37E2,2.75E2,2.56E2,2.87E2,2.49E2,1.88E2,7.6E1,7.5E1,1.62E2,1.37E2,1.38E2,1.43E2,1.13E2,1.08E2,1.79E2,7.2E1,1.77E2,7.6E1,1.12E2,6.2E1,1.4E1,6.6E1,9.6E1,4.6E1,9.1E1,5.1E1,8.7E1,5.9E1,8.4E1,4.3E1,7E1,5E1,5.8E1,7.1E1,1.08E2,3.6E1,3.6E1,9E1,8.7E1,5.7E1,1.9E1,6.7E1,4.5E1,1.6E1,4.6E1,1E0,1.3E1,7.4E1,2.2E1,7.7E1,1.4E1,2.2E1,2.9E1,6.5E1,2.2E1,2.6E1,3.3E1,1.7E1,6.7E1,1.3E1,3E1,1.7E1,5.3E1,3.7E1,1.3E1,3.7E1,2.1E1,1.9E1,5.2E1,3.5E1,7.3E1,3E1,6E0,7E0,2.9E1,5.5E1,3.5E1,4.6E1,4.1E1,1.8E1,1E0],"tree_param":{"num_deleted":"0","num_feature":"20","num_nodes":"89","size_leaf_vector":"1"}},{"base_weights":[4.6135182E-4,-1.9849625E-1,1.8413235E-1,-3.4038478E-1,-1.2147946E-1,1.0558625E-1,3.5208932E-1,-5.1849574E-1,-3.0341408E-1,-1.723805E-1,-6.7368604E-2,4.4846088E-2,1.6724434E-1,2.9198566E-1,5.122037E-1,-6.615838E-2,-4.3969173E-2,-3.453691E-2,-2.6347575E-1,-2.0313647E-1,-1.4438707E-1,-1.0310464E-1,-4.2258445E-2,4.289826E-3,6.915601E-2,1.11290716E-1,1.9002253E-1,2.318311E-1,3.2927442E-1,4.6273804E-1,6.6602623E-1,-2.854359E-2,-2.2926949E-1,-2.3804314E-2,-1.8470767E-1,-1.6968516E-1,-1.1812428E-1,-1.6353833E-2,-8.875632E-2,-7.4426256E-2,-1.3672941E-2,-2.9965151E-2,2.8843563E-2,3.3447172E-2,9.434378E-2,7.676233E-2,1.3950948E-1,1.5807287E-1,2.2852637E-1,2.0048623E-1,2.8064385E-2,2.856933E-1,3.8092624E-2,1.35512715E-2,4.661615E-2,1.8977571E-2,6.8648875E-2,-2.3129763E-2,-6.2917294E-3,-2.109259E-2,-1.6588746E-2,-1.935111E-2,-1.5032837E-2,-1.2182252E-2,-4.494305E-3,-1.0971065E-2,-6.2302444E-3,-4.4849683E-3,-8.854651E-3,6.922664E-4,-3.5534704E-3,-6.511939E-3,-1.5642496E-3,-1.3147845E-3,4.3114615E-3,2.4714808E-3,1.1599265E-2,8.17303E-3,1.4386457E-2,6.1401217E-3,1.0090431E-2,9.425971E-3,1.531076E-2,1.7907754E-2,1.215412E-2,1.9006576E-2,2.48147E-2,2.022909E-2,5.512655E-3,2.3420772E-2,3.101801E-2],"categories":[],"categories_nodes":[],"categories_segments":[],"categories_sizes":[],"default_left":[0,0,0,0,0,0,0,0,0,0,0,0,0,0,0,0,0,0,0,0,0,0,0,0,0,0,0,0,0,0,0,0,0,0,0,0,0,0,0,0,0,0,0,0,0,0,0,0,0,0,0,0,0,0,0,0,0,0,0,0,0,0,0,0,0,0,0,0,0,0,0,0,0,0,0,0,0,0,0,0,0,0,0,0,0,0,0,0,0,0,0],"id":8,"left_children":[1,3,5,7,9,11,13,15,17,19,21,23,25,27,29,-1,-1,-1,31,33,35,37,39,41,43,45,47,49,51,53,55,-1,57,-1,59,61,63,-1,65,67,69,71,73,75,77,79,81,83,85,87,-1,89,-1,-1,-1,-1,-1,-1,-1,-1,-1,-1,-1,-1,-1,-1,-1,-1,-1,-1,-1,-1,-1,-1,-1,-1,-1,-1,-1,-1,-1,-1,-1,-1,-1,-1,-1,-1,-1,-1,-1],"loss_changes":[5.854148E1,8.362129E0,1.0952061E1,1.6205997E0,1.3655367E0,2.1234741E0,2.4006615E0,2.1652412E-1,2.8769112E-1,1.9193792E-1,2.1459329E-1,2.836482E-1,3.382678E-1,3.6106682E-1,2.320385E-1,0E0,0E0,0E0,2.4699211E-2,3.3226013E-2,7.1642876E-2,7.21972E-2,1.3231465E-1,9.2542864E-2,1.5874118E-1,7.1136355E-2,2.0868301E-1,6.307697E-2,1.5679455E-1,6.8187714E-4,1.5900135E-2,0E0,2.9916763E-3,0E0,5.9649944E-3,2.270937E-3,1.374042E-2,0E0,3.9173603E-2,2.4427474E-2,3.536598E-2,2.2142466E-2,3.891959E-2,5.1915377E-2,5.3828E-2,8.638263E-3,1.3257086E-2,6.417632E-2,1.9242764E-2,2.2268295E-3,0E0,1.3081551E-2,0E0,0E0,0E0,0E0,0E0,0E0,0E0,0E0,0E0,0E0,0E0,0E0,0E0,0E0,0E0,0E0,0E0,0E0,0E0,0E0,0E0,0E0,0E0,0E0,0E0,0E0,0E0,0E0,0E0,0E0,0E0,0E0,0E0,0E0,0E0,0E0,0E0,0E0,0E0],"parents":[2147483647,0,0,1,1,2,2,3,3,4,4,5,5,6,6,7,7,8,8,9,9,10,10,11,11,12,12,13,13,14,14,18,18,19,19,20,20,21,21,22,22,23,23,24,24,25,25,26,26,27,27,28,28,29,29,30,30,32,32,34,34,35,35,36,36,38,38,39,39,40,40,41,41,42,42,43,43,44,44,45,45,46,46,47,47,48,48,49,49,51,51],"right_children":[2,4,6,8,10,12,14,16,18,20,22,24,26,28,30,-1,-1,-1,32,34,36,38,40,42,44,46,48,50,52,54,56,-1,58,-1,60,62,64,-1,66,68,70,72,74,76,78,80,82,84,86,88,-1,90,-1,-1,-1,-1,-1,-1,-1,-1,-1,-1,-1,-1,-1,-1,-1,-1,-1,-1,-1,-1,-1,-1,-1,-1,-1,-1,-1,-1,-1,-1,-1,-1,-1,-1,-1,-1,-1,-1,-1],"split_conditions":[9.986152E-1,7.8847957E-1,1.2273272E0,6.135872E-1,9.005317E-1,1.1045026E0,1.3878582E0,4.815688E-1,7.2012657E-1,8.3954453E-1,1E0,1E0,1E0,1E0,1.5421588E0,-6.615838E-2,-4.3969173E-2,-3.453691E-2,7.9642426E2,7.613302E2,7.975925E2,7.075356E2,9.468156E-1,1.0513036E0,1.0426971E0,1.1618946E0,1.1688637E0,8.2929517E2,1.2943814E0,1.01E0,1.31E1,-2.854359E-2,8.9497983E-1,-2.3804314E-2,1E0,1E0,1.0025091E3,-1.6353833E-2,9.596228E-1,2E0,2E0,7.675604E2,7.4451404E2,9.329731E2,8.892923E2,8.397604E2,7.3402765E2,2E0,7.675604E2,3.8E1,2.8064385E-2,7.545286E2,3.8092624E-2,1.35512715E-2,4.661615E-2,1.8977571E-2,6.8648875E-2,-2.3129763E-2,-6.2917294E-3,-2.109259E-2,-1.6588746E-2,-1.935111E-2,-1.5032837E-2,-1.2182252E-2,-4.494305E-3,-1.0971065E-2,-6.2302444E-3,-4.4849683E-3,-8.854651E-3,6.922664E-4,-3.5534704E-3,-6.511939E-3,-1.5642496E-3,-1.3147845E-3,4.3114615E-3,2.4714808E-3,1.1599265E-2,8.17303E-3,1.4386457E-2,6.1401217E-3,1.0090431E-2,9.425971E-3,1.531076E-2,1.7907754E-2,1.215412E-2,1.9006576E-2,2.48147E-2,2.022909E-2,5.512655E-3,2.3420772E-2,3.101801E-2],"split_indices":[0,0,0,0,0,0,0,0,0,0,2,2,2,2,0,0,0,0,13,13,13,13,0,0,0,0,0,13,0,17,8,0,10,0,2,2,13,0,0,2,2,13,13,13,13,13,13,2,13,8,0,13,0,0,0,0,0,0,0,0,0,0,0,0,0,0,0,0,0,0,0,0,0,0,0,0,0,0,0,0,0,0,0,0,0,0,0,0,0,0,0],"split_type":[0,0,0,0,0,0,0,0,0,0,0,0,0,0,0,0,0,0,0,0,0,0,0,0,0,0,0,0,0,0,0,0,0,0,0,0,0,0,0,0,0,0,0,0,0,0,0,0,0,0,0,0,0,0,0,0,0,0,0,0,0,0,0,0,0,0,0,0,0,0,0,0,0,0,0,0,0,0,0,0,0,0,0,0,0,0,0,0,0,0,0],"sum_hessian":[1.6E3,7.68E2,8.32E2,2.69E2,4.99E2,5.68E2,2.64E2,4.4E1,2.25E2,2.56E2,2.43E2,2.87E2,2.81E2,1.94E2,7E1,1.3E1,3.1E1,1.06E2,1.19E2,1.19E2,1.37E2,9.9E1,1.44E2,1.08E2,1.79E2,8.3E1,1.98E2,7.7E1,1.17E2,5.6E1,1.4E1,6.8E1,5.1E1,3.7E1,8.2E1,6.7E1,7E1,1.7E1,8.2E1,6.7E1,7.7E1,4.5E1,6.3E1,7.5E1,1.04E2,3.9E1,4.4E1,1.11E2,8.7E1,5E1,2.7E1,6.7E1,5E1,1E0,5.5E1,1E0,1.3E1,5E1,1E0,3E1,5.2E1,2.6E1,4.1E1,6.6E1,4E0,4.4E1,3.8E1,2.3E1,4.4E1,4E1,3.7E1,1.2E1,3.3E1,1.6E1,4.7E1,6.9E1,6E0,8.5E1,1.9E1,2.6E1,1.3E1,1.2E1,3.2E1,6.8E1,4.3E1,3.3E1,5.4E1,4.9E1,1E0,2.5E1,4.2E1],"tree_param":{"num_deleted":"0","num_feature":"20","num_nodes":"91","size_leaf_vector":"1"}},{"base_weights":[4.6243254E-4,-1.7082681E-1,1.743366E-1,-2.848759E-1,-8.8026226E-2,1.2049732E-1,3.7009802E-1,-4.2989197E-1,-2.4622406E-1,-1.27398E-1,-3.489672E-2,6.4751536E-2,1.8807198E-1,3.221579E-1,5.19048E-1,-5.646326E-2,-3.686233E-2,-2.846303E-1,-2.1115226E-1,-1.6070667E-1,-1.0917707E-1,-6.8763494E-2,-1.0492434E-2,3.548656E-2,1.01921424E-1,1.4431056E-1,2.0884185E-1,2.5004253E-1,3.553742E-1,3.507576E-2,5.634529E-1,-3.26751E-2,-2.596801E-2,-2.4035783E-2,-1.8510886E-1,-1.9028341E-2,-1.3776697E-1,-1.375908E-1,-8.14297E-2,-7.754018E-2,-9.641667E-3,-4.4629097E-2,2.7285232E-3,-1.6876942E-3,5.792795E-2,5.9204116E-2,1.23115204E-1,9.910779E-2,1.5925203E-1,1.7240274E-1,2.3823202E-1,1.4796172E-2,2.6811508E-2,2.5545973E-2,3.7240513E-2,2.657733E-2,5.8668494E-2,-1.9931434E-2,-1.5276409E-2,-1.6023533E-2,-1.17251575E-2,-1.5532295E-2,-1.0731471E-2,-9.451866E-3,-4.973579E-3,-1.1724966E-2,-6.7806356E-3,1.7033721E-3,-2.5108575E-3,-5.9321416E-3,-2.045228E-3,-1.9327821E-3,2.2328123E-3,-2.7217024E-3,1.1110726E-3,4.652348E-3,1.1001955E-2,4.3639126E-3,9.468849E-3,1.0632204E-2,1.718635E-2,5.024352E-3,1.0570841E-2,1.4291905E-2,1.947115E-2,1.8811045E-2,1.3395916E-2,1.9643722E-2,2.5805285E-2],"categories":[],"categories_nodes":[],"categories_segments":[],"categories_sizes":[],"default_left":[0,0,0,0,0,0,0,0,0,0,0,0,0,0,0,0,0,0,0,0,0,0,0,0,0,0,0,0,0,0,0,0,0,0,0,0,0,0,0,0,0,0,0,0,0,0,0,0,0,0,0,0,0,0,0,0,0,0,0,0,0,0,0,0,0,0,0,0,0,0,0,0,0,0,0,0,0,0,0,0,0,0,0,0,0,0,0,0,0],"id":9,"left_children":[1,3,5,7,9,11,13,15,17,19,21,23,25,27,29,-1,-1,31,33,35,37,39,41,43,45,47,49,51,53,-1,55,-1,-1,-1,57,-1,59,61,63,65,67,69,71,73,75,77,79,81,83,85,87,-1,-1,-1,-1,-1,-1,-1,-1,-1,-1,-1,-1,-1,-1,-1,-1,-1,-1,-1,-1,-1,-1,-1,-1,-1,-1,-1,-1,-1,-1,-1,-1,-1,-1,-1,-1,-1,-1],"loss_changes":[4.7711998E1,7.5956917E0,8.334429E0,1.7942944E0,9.766097E-1,2.3421993E0,1.0538406E0,3.697405E-1,3.0358315E-1,1.4571428E-1,1.6540384E-1,3.7057805E-1,2.2617817E-1,2.2733498E-1,1.0128021E-1,0E0,0E0,4.756546E-2,6.579685E-2,3.688407E-2,1.2834406E-1,4.2839468E-2,5.3377457E-2,1.6194066E-1,1.2941742E-1,4.77041E-2,1.613369E-1,4.3348074E-2,5.46093E-2,0E0,5.154705E-2,0E0,0E0,0E0,6.7691803E-3,0E0,7.025242E-3,2.9501438E-2,3.3464372E-2,2.0266056E-2,5.378722E-3,1.0508791E-2,3.760897E-2,2.4480797E-2,6.676483E-2,2.4588168E-2,6.359112E-2,3.0747354E-3,1.2133956E-2,2.794075E-2,3.3806324E-2,0E0,0E0,0E0,0E0,0E0,0E0,0E0,0E0,0E0,0E0,0E0,0E0,0E0,0E0,0E0,0E0,0E0,0E0,0E0,0E0,0E0,0E0,0E0,0E0,0E0,0E0,0E0,0E0,0E0,0E0,0E0,0E0,0E0,0E0,0E0,0E0,0E0,0E0],"parents":[2147483647,0,0,1,1,2,2,3,3,4,4,5,5,6,6,7,7,8,8,9,9,10,10,11,11,12,12,13,13,14,14,17,17,18,18,19,19,20,20,21,21,22,22,23,23,24,24,25,25,26,26,27,27,28,28,30,30,34,34,36,36,37,37,38,38,39,39,40,40,41,41,42,42,43,43,44,44,45,45,46,46,47,47,48,48,49,49,50,50],"right_children":[2,4,6,8,10,12,14,16,18,20,22,24,26,28,30,-1,-1,32,34,36,38,40,42,44,46,48,50,52,54,-1,56,-1,-1,-1,58,-1,60,62,64,66,68,70,72,74,76,78,80,82,84,86,88,-1,-1,-1,-1,-1,-1,-1,-1,-1,-1,-1,-1,-1,-1,-1,-1,-1,-1,-1,-1,-1,-1,-1,-1,-1,-1,-1,-1,-1,-1,-1,-1,-1,-1,-1,-1,-1,-1],"split_conditions":[1.0150067E0,8.1676114E-1,1.2760376E0,6.500045E-1,9.334996E-1,1.1433275E0,1.4399338E0,5.1885253E-1,7.507996E-1,1E0,1E0,1.0849113E0,1E0,1E0,1E0,-5.646326E-2,-3.686233E-2,1E0,1E0,7.710015E2,8.669369E-1,9.2724005E2,7.4872723E2,1E0,1E0,1.1929203E0,1.1929203E0,7.024297E2,7.058619E2,3.507576E-2,6.217885E2,-3.26751E-2,-2.596801E-2,-2.4035783E-2,8.384935E2,-1.9028341E-2,8.72484E-1,8.420017E2,8.510308E2,7.115964E2,5.2E-1,9.805844E-1,9.682677E-1,1.0426971E0,8.8723157E2,8.766432E2,8.892923E2,2.84E1,8.325841E2,2E0,7.675604E2,1.4796172E-2,2.6811508E-2,2.5545973E-2,3.7240513E-2,2.657733E-2,5.8668494E-2,-1.9931434E-2,-1.5276409E-2,-1.6023533E-2,-1.17251575E-2,-1.5532295E-2,-1.0731471E-2,-9.451866E-3,-4.973579E-3,-1.1724966E-2,-6.7806356E-3,1.7033721E-3,-2.5108575E-3,-5.9321416E-3,-2.045228E-3,-1.9327821E-3,2.2328123E-3,-2.7217024E-3,1.1110726E-3,4.652348E-3,1.1001955E-2,4.3639126E-3,9.468849E-3,1.0632204E-2,1.718635E-2,5.024352E-3,1.0570841E-2,1.4291905E-2,1.947115E-2,1.8811045E-2,1.3395916E-2,1.9643722E-2,2.5805285E-2],"split_indices":[0,0,0,0,0,0,0,0,0,2,2,0,2,2,2,0,0,2,2,13,0,13,13,2,2,0,0,13,13,0,13,0,0,0,13,0,0,13,13,13,19,0,0,0,13,13,13,12,13,2,13,0,0,0,0,0,0,0,0,0,0,0,0,0,0,0,0,0,0,0,0,0,0,0,0,0,0,0,0,0,0,0,0,0,0,0,0,0,0],"split_type":[0,0,0,0,0,0,0,0,0,0,0,0,0,0,0,0,0,0,0,0,0,0,0,0,0,0,0,0,0,0,0,0,0,0,0,0,0,0,0,0,0,0,0,0,0,0,0,0,0,0,0,0,0,0,0,0,0,0,0,0,0,0,0,0,0,0,0,0,0,0,0,0,0,0,0,0,0,0,0,0,0,0,0,0,0,0,0,0,0],"sum_hessian":[1.6E3,8.06E2,7.94E2,3.38E2,4.68E2,6.24E2,1.7E2,6.9E1,2.69E2,2.68E2,2E2,3.43E2,2.81E2,1.31E2,3.9E1,1.9E1,5E1,1.25E2,1.44E2,9.2E1,1.76E2,8.3E1,1.17E2,1.93E2,1.5E2,9.3E1,1.88E2,4.4E1,8.7E1,1E1,2.9E1,4.2E1,8.3E1,6.4E1,8E1,3.7E1,5.5E1,8.5E1,9.1E1,7.2E1,1.1E1,3.2E1,8.5E1,7.3E1,1.2E2,5.1E1,9.9E1,2.5E1,6.8E1,8.7E1,1.01E2,8E0,3.6E1,1.5E1,7.2E1,3E0,2.6E1,5.2E1,2.8E1,2.3E1,3.2E1,5.1E1,3.4E1,6.3E1,2.8E1,1.2E1,6E1,4E0,7E0,1.9E1,1.3E1,4E1,4.5E1,2.4E1,4.9E1,1E2,2E1,3.7E1,1.4E1,7.6E1,2.3E1,4E0,2.1E1,5E1,1.8E1,5.9E1,2.8E1,3.6E1,6.5E1],"tree_param":{"num_deleted":"0","num_feature":"20","num_nodes":"89","size_leaf_vector":"1"}},{"base_weights":[4.6724937E-4,-1.6416484E-1,1.4795367E-1,-2.7732223E-1,-1.0122087E-1,8.3907284E-2,2.8781405E-1,-4.549681E-1,-2.5152546E-1,-1.5004867E-1,-6.502024E-2,3.584672E-2,1.3725524E-1,2.3792323E-1,4.2078438E-1,-5.477208E-2,-3.6729284E-2,-3.0522889E-2,-2.2494271E-1,-1.8296231E-1,-1.3299027E-1,-9.08038E-2,-4.003298E-2,2.6386098E-3,5.517599E-2,9.081688E-2,1.5651496E-1,2.1208984E-1,2.9674637E-1,3.784366E-1,5.536538E-1,-2.5250403E-2,-2.0358652E-1,-1.9845376E-2,-1.3256575E-2,-1.4303128E-1,-9.307087E-2,-1.2107153E-1,-6.865668E-2,-6.8144225E-2,-1.8807618E-2,-2.6236588E-2,2.3285937E-2,2.6689883E-2,7.95708E-2,6.286802E-2,1.1302107E-1,1.3014488E-1,1.8464246E-1,1.6704535E-2,2.4136412E-1,6.725335E-3,2.9964348E-2,3.14863E-2,4.2515736E-2,1.6274905E-2,5.6995064E-2,-2.1833787E-2,-1.5725574E-2,-1.095486E-2,-1.5421795E-2,-3.3450664E-3,-9.826409E-3,-1.3309896E-2,-8.761772E-3,-8.589629E-3,-5.181574E-3,-7.64627E-3,-1.7241884E-3,-3.5688474E-3,7.066832E-4,-3.5400048E-3,1.2124563E-3,9.834295E-4,6.2271105E-3,4.8911236E-3,2.8878052E-4,4.806152E-3,9.353904E-3,4.7754496E-3,8.160906E-3,9.668235E-3,1.54733285E-2,1.1127467E-2,1.7235324E-2,1.7205095E-2,2.3696953E-2,1.9475153E-2,2.6319457E-2],"categories":[],"categories_nodes":[],"categories_segments":[],"categories_sizes":[],"default_left":[0,0,0,0,0,0,0,0,0,0,0,0,0,0,0,0,0,0,0,0,0,0,0,0,0,0,0,0,0,0,0,0,0,0,0,0,0,0,0,0,0,0,0,0,0,0,0,0,0,0,0,0,0,0,0,0,0,0,0,0,0,0,0,0,0,0,0,0,0,0,0,0,0,0,0,0,0,0,0,0,0,0,0,0,0,0,0,0,0],"id":10,"left_children":[1,3,5,7,9,11,13,15,17,19,21,23,25,27,29,-1,-1,-1,31,33,35,37,39,41,43,45,47,49,51,53,55,-1,57,-1,-1,59,61,63,65,67,69,71,73,75,77,79,81,83,85,-1,87,-1,-1,-1,-1,-1,-1,-1,-1,-1,-1,-1,-1,-1,-1,-1,-1,-1,-1,-1,-1,-1,-1,-1,-1,-1,-1,-1,-1,-1,-1,-1,-1,-1,-1,-1,-1,-1,-1],"loss_changes":[3.8898167E1,5.36372E0,7.544983E0,1.1228924E0,8.528309E-1,1.484725E0,1.6578941E0,6.718588E-2,2.7110577E-1,9.1888905E-2,1.7804623E-1,1.9691423E-1,2.3174286E-1,2.3338604E-1,1.8997574E-1,0E0,0E0,0E0,4.4535637E-2,2.6780367E-2,4.280424E-2,8.419502E-2,8.523573E-2,6.857725E-2,1.3268936E-1,4.4402897E-2,1.19122505E-1,1.4297295E-1,1.7745972E-2,3.5435677E-2,2.7990341E-3,0E0,3.195858E-2,0E0,0E0,2.4307013E-2,6.311238E-3,1.1272848E-2,1.935634E-2,2.4934262E-2,3.6941968E-2,1.7302211E-2,3.4523387E-2,4.7989964E-2,4.1277766E-2,7.149279E-3,1.5708625E-2,6.285894E-2,1.918745E-2,0E0,3.2183647E-2,0E0,0E0,0E0,0E0,0E0,0E0,0E0,0E0,0E0,0E0,0E0,0E0,0E0,0E0,0E0,0E0,0E0,0E0,0E0,0E0,0E0,0E0,0E0,0E0,0E0,0E0,0E0,0E0,0E0,0E0,0E0,0E0,0E0,0E0,0E0,0E0,0E0,0E0],"parents":[2147483647,0,0,1,1,2,2,3,3,4,4,5,5,6,6,7,7,8,8,9,9,10,10,11,11,12,12,13,13,14,14,18,18,19,19,20,20,21,21,22,22,23,23,24,24,25,25,26,26,27,27,28,28,29,29,30,30,32,32,35,35,36,36,37,37,38,38,39,39,40,40,41,41,42,42,43,43,44,44,45,45,46,46,47,47,48,48,50,50],"right_children":[2,4,6,8,10,12,14,16,18,20,22,24,26,28,30,-1,-1,-1,32,34,36,38,40,42,44,46,48,50,52,54,56,-1,58,-1,-1,60,62,64,66,68,70,72,74,76,78,80,82,84,86,-1,88,-1,-1,-1,-1,-1,-1,-1,-1,-1,-1,-1,-1,-1,-1,-1,-1,-1,-1,-1,-1,-1,-1,-1,-1,-1,-1,-1,-1,-1,-1,-1,-1,-1,-1,-1,-1,-1,-1],"split_conditions":[9.941016E-1,7.8847957E-1,1.2273272E0,5.9116423E-1,8.785058E-1,1.1075536E0,1.3878582E0,4.815688E-1,6.902664E-1,1E0,9.3547505E-1,1E0,1E0,1.3169966E0,1.5421588E0,-5.477208E-2,-3.6729284E-2,-3.0522889E-2,1E0,8.708866E2,8.892923E2,1E0,1E0,1.0490233E0,1.0490233E0,1.1618946E0,1.1663275E0,1E0,5.17E1,7.739377E2,1.31E1,-2.5250403E-2,8.384935E2,-1.9845376E-2,-1.3256575E-2,2E0,6.44E1,8.4088434E2,7.921989E2,9.2724005E2,8.286251E2,8.8528265E2,8.816081E2,2E0,7.577765E2,-8.9252E2,8.481958E2,8.570467E2,8.885525E2,1.6704535E-2,7.577765E2,6.725335E-3,2.9964348E-2,3.14863E-2,4.2515736E-2,1.6274905E-2,5.6995064E-2,-2.1833787E-2,-1.5725574E-2,-1.095486E-2,-1.5421795E-2,-3.3450664E-3,-9.826409E-3,-1.3309896E-2,-8.761772E-3,-8.589629E-3,-5.181574E-3,-7.64627E-3,-1.7241884E-3,-3.5688474E-3,7.066832E-4,-3.5400048E-3,1.2124563E-3,9.834295E-4,6.2271105E-3,4.8911236E-3,2.8878052E-4,4.806152E-3,9.353904E-3,4.7754496E-3,8.160906E-3,9.668235E-3,1.54733285E-2,1.1127467E-2,1.7235324E-2,1.7205095E-2,2.3696953E-2,1.9475153E-2,2.6319457E-2],"split_indices":[0,0,0,0,0,0,0,0,0,2,0,2,2,0,0,0,0,0,2,13,13,2,2,0,0,0,0,2,9,13,8,0,13,0,0,2,9,13,13,13,13,13,13,2,13,18,13,13,13,0,13,0,0,0,0,0,0,0,0,0,0,0,0,0,0,0,0,0,0,0,0,0,0,0,0,0,0,0,0,0,0,0,0,0,0,0,0,0,0],"split_type":[0,0,0,0,0,0,0,0,0,0,0,0,0,0,0,0,0,0,0,0,0,0,0,0,0,0,0,0,0,0,0,0,0,0,0,0,0,0,0,0,0,0,0,0,0,0,0,0,0,0,0,0,0,0,0,0,0,0,0,0,0,0,0,0,0,0,0,0,0,0,0,0,0,0,0,0,0,0,0,0,0,0,0,0,0,0,0,0,0],"sum_hessian":[1.6E3,7.56E2,8.44E2,2.69E2,4.87E2,5.8E2,2.64E2,3.2E1,2.37E2,2.06E2,2.81E2,3.06E2,2.74E2,1.94E2,7E1,1.3E1,1.9E1,7.5E1,1.62E2,6.7E1,1.39E2,1.37E2,1.44E2,1.13E2,1.93E2,8.2E1,1.92E2,1.38E2,5.6E1,5.6E1,1.4E1,6.6E1,9.6E1,4.9E1,1.8E1,1.09E2,3E1,5.6E1,8.1E1,6.1E1,8.3E1,4.7E1,6.6E1,9E1,1.03E2,3.8E1,4.4E1,1.02E2,9E1,5.7E1,8.1E1,1E0,5.5E1,2.7E1,2.9E1,1E0,1.3E1,7E1,2.6E1,3E1,7.9E1,3E0,2.7E1,3.9E1,1.7E1,3.8E1,4.3E1,5.2E1,9E0,5E1,3.3E1,3.8E1,9E0,5E1,1.6E1,4.6E1,4.4E1,3.3E1,7E1,2.3E1,1.5E1,3.4E1,1E1,7.3E1,2.9E1,7.6E1,1.4E1,2.9E1,5.2E1],"tree_param":{"num_deleted":"0","num_feature":"20","num_nodes":"89","size_leaf_vector":"1"}},{"base_weights":[4.65808E-4,-1.3389143E-1,1.4783609E-1,-2.2811978E-1,-6.3822106E-2,1.0302845E-1,3.0261916E-1,-3.4584627E-1,-1.9558313E-1,-1.0009174E-1,-2.4307016E-2,5.9501562E-2,1.5539551E-1,2.623453E-1,4.279574E-1,-4.9686104E-2,-3.0679781E-2,-2.2878551E-1,-1.676909E-1,-1.2719604E-1,-8.59438E-2,-5.3334277E-2,-4.148343E-3,3.3358973E-2,8.512193E-2,1.1880251E-1,1.7343572E-1,2.012179E-1,2.9062244E-1,2.852999E-2,4.659999E-1,-2.6510844E-2,-2.07468E-1,-1.84137E-1,-1.3644434E-2,-1.4773841E-1,-1.0788103E-1,-1.086441E-1,-6.601047E-2,-7.018475E-2,-2.8410256E-2,-1.5264628E-2,3.815992E-2,3.5766913E-3,5.1605754E-2,4.9454596E-2,1.01706736E-1,9.8672554E-2,1.4143556E-1,1.8818007E-1,1.21211655E-1,1.5680553E-2,2.368817E-2,2.6141924E-1,3.5375778E-2,3.0130018E-2,5.030259E-2,-2.2676859E-2,-1.8056815E-2,-2.052795E-2,-1.6151482E-2,-1.5631849E-2,-9.6023325E-3,-1.1001676E-2,-3.9884727E-3,-1.2244782E-2,-8.157424E-3,-7.5340974E-3,-3.4743268E-3,-8.217402E-3,-4.7920714E-3,-3.4333672E-3,1.0878047E-3,-3.5633321E-3,4.966713E-5,2.1519423E-3,6.762493E-3,-5.298195E-3,8.3091744E-4,1.649529E-3,6.6208835E-3,3.4653724E-3,7.489548E-3,7.386525E-3,1.2174684E-2,8.433403E-3,1.3520089E-2,1.4312786E-2,3.687191E-3,1.3410081E-2,1.9963918E-2,1.0311831E-2,1.5364155E-2,2.256856E-2,2.9930228E-2],"categories":[],"categories_nodes":[],"categories_segments":[],"categories_sizes":[],"default_left":[0,0,0,0,0,0,0,0,0,0,0,0,0,0,0,0,0,0,0,0,0,0,0,0,0,0,0,0,0,0,0,0,0,0,0,0,0,0,0,0,0,0,0,0,0,0,0,0,0,0,0,0,0,0,0,0,0,0,0,0,0,0,0,0,0,0,0,0,0,0,0,0,0,0,0,0,0,0,0,0,0,0,0,0,0,0,0,0,0,0,0,0,0,0,0],"id":11,"left_children":[1,3,5,7,9,11,13,15,17,19,21,23,25,27,29,-1,-1,31,33,35,37,39,41,43,45,47,49,51,53,-1,55,-1,57,59,-1,61,63,65,67,69,71,73,75,77,79,81,83,85,87,89,91,-1,-1,93,-1,-1,-1,-1,-1,-1,-1,-1,-1,-1,-1,-1,-1,-1,-1,-1,-1,-1,-1,-1,-1,-1,-1,-1,-1,-1,-1,-1,-1,-1,-1,-1,-1,-1,-1,-1,-1,-1,-1,-1,-1],"loss_changes":[3.1720018E1,5.5183506E0,5.267517E0,1.29982E0,6.8836856E-1,1.3447022E0,7.5090885E-1,2.9572773E-1,2.2279072E-1,8.531928E-2,1.355338E-1,2.1550965E-1,1.5697479E-1,1.6968441E-1,8.413267E-2,0E0,0E0,4.2562485E-2,5.5555344E-2,1.7391086E-2,6.884706E-2,3.7904292E-2,6.548538E-2,8.839464E-2,9.198201E-2,2.7959704E-2,1.1425209E-1,3.4131885E-2,6.977081E-2,0E0,3.1383038E-2,0E0,2.6640892E-3,1.4673233E-2,0E0,1.8511415E-3,2.4374127E-3,1.8783629E-2,2.4222404E-2,1.10102E-2,9.682324E-3,3.5331775E-2,1.2763809E-2,1.7302996E-2,5.0692677E-2,1.7738149E-2,5.2939177E-2,1.5833616E-2,1.9776225E-3,5.8126926E-2,8.800924E-3,0E0,0E0,1.9088745E-2,0E0,0E0,0E0,0E0,0E0,0E0,0E0,0E0,0E0,0E0,0E0,0E0,0E0,0E0,0E0,0E0,0E0,0E0,0E0,0E0,0E0,0E0,0E0,0E0,0E0,0E0,0E0,0E0,0E0,0E0,0E0,0E0,0E0,0E0,0E0,0E0,0E0,0E0,0E0,0E0,0E0],"parents":[2147483647,0,0,1,1,2,2,3,3,4,4,5,5,6,6,7,7,8,8,9,9,10,10,11,11,12,12,13,13,14,14,17,17,18,18,19,19,20,20,21,21,22,22,23,23,24,24,25,25,26,26,27,27,28,28,30,30,32,32,33,33,35,35,36,36,37,37,38,38,39,39,40,40,41,41,42,42,43,43,44,44,45,45,46,46,47,47,48,48,49,49,50,50,53,53],"right_children":[2,4,6,8,10,12,14,16,18,20,22,24,26,28,30,-1,-1,32,34,36,38,40,42,44,46,48,50,52,54,-1,56,-1,58,60,-1,62,64,66,68,70,72,74,76,78,80,82,84,86,88,90,92,-1,-1,94,-1,-1,-1,-1,-1,-1,-1,-1,-1,-1,-1,-1,-1,-1,-1,-1,-1,-1,-1,-1,-1,-1,-1,-1,-1,-1,-1,-1,-1,-1,-1,-1,-1,-1,-1,-1,-1,-1,-1,-1,-1],"split_conditions":[1.0264232E0,8.2562536E-1,1.2760376E0,6.562578E-1,9.334996E-1,1.1476423E0,1.4399338E0,4.815688E-1,7.5424194E-1,1E0,1E0,1.0849113E0,1E0,1E0,1E0,-4.9686104E-2,-3.0679781E-2,1E0,8.4545636E2,7.7941547E2,8.669369E-1,8.2135614E2,8.816081E2,1E0,1E0,1.2273272E0,2E0,8.046886E2,8.481958E2,2.852999E-2,6.8383527E2,-2.6510844E-2,7.91088E2,1E0,-1.3644434E-2,9.243367E-1,9.7173944E2,8.478531E2,8.8528265E2,9.870035E-1,9.936217E2,9.7062093E-1,6.970439E-1,6.914175E2,7.4344885E2,8.6414197E2,7.8535364E2,8.481958E2,3.8E1,7.0932074E2,8.743252E2,1.5680553E-2,2.368817E-2,1.3584815E0,3.5375778E-2,3.0130018E-2,5.030259E-2,-2.2676859E-2,-1.8056815E-2,-2.052795E-2,-1.6151482E-2,-1.5631849E-2,-9.6023325E-3,-1.1001676E-2,-3.9884727E-3,-1.2244782E-2,-8.157424E-3,-7.5340974E-3,-3.4743268E-3,-8.217402E-3,-4.7920714E-3,-3.4333672E-3,1.0878047E-3,-3.5633321E-3,4.966713E-5,2.1519423E-3,6.762493E-3,-5.298195E-3,8.3091744E-4,1.649529E-3,6.6208835E-3,3.4653724E-3,7.489548E-3,7.386525E-3,1.2174684E-2,8.433403E-3,1.3520089E-2,1.4312786E-2,3.687191E-3,1.3410081E-2,1.9963918E-2,1.0311831E-2,1.5364155E-2,2.256856E-2,2.9930228E-2],"split_indices":[0,0,0,0,0,0,0,0,0,2,2,0,2,2,2,0,0,2,13,13,0,13,13,2,2,0,2,13,13,0,13,0,13,2,0,0,13,13,13,0,13,0,10,13,13,13,13,13,8,13,13,0,0,0,0,0,0,0,0,0,0,0,0,0,0,0,0,0,0,0,0,0,0,0,0,0,0,0,0,0,0,0,0,0,0,0,0,0,0,0,0,0,0,0,0],"split_type":[0,0,0,0,0,0,0,0,0,0,0,0,0,0,0,0,0,0,0,0,0,0,0,0,0,0,0,0,0,0,0,0,0,0,0,0,0,0,0,0,0,0,0,0,0,0,0,0,0,0,0,0,0,0,0,0,0,0,0,0,0,0,0,0,0,0,0,0,0,0,0,0,0,0,0,0,0,0,0,0,0,0,0,0,0,0,0,0,0,0,0,0,0,0,0],"sum_hessian":[1.6E3,8.37E2,7.63E2,3.56E2,4.81E2,5.93E2,1.7E2,7.5E1,2.81E2,2.5E2,2.31E2,3.25E2,2.68E2,1.31E2,3.9E1,1.3E1,6.2E1,1.25E2,1.56E2,8.3E1,1.67E2,9.4E1,1.37E2,1.62E2,1.63E2,9.1E1,1.77E2,4.4E1,8.7E1,1E1,2.9E1,4.2E1,8.3E1,9.9E1,5.7E1,3.7E1,4.6E1,7.6E1,9.1E1,5.5E1,3.9E1,1.09E2,2.8E1,6.2E1,1E2,5.3E1,1.1E2,5.1E1,4E1,1.36E2,4.1E1,2.2E1,2.2E1,6.3E1,2.4E1,7E0,2.2E1,4.4E1,3.9E1,4.7E1,5.2E1,3E1,7E0,4.4E1,2E0,4.8E1,2.8E1,6.9E1,2.2E1,3.4E1,2.1E1,3.4E1,5E0,4.7E1,6.2E1,1.9E1,9E0,4E0,5.8E1,3E1,7E1,3.5E1,1.8E1,4.8E1,6.2E1,3.9E1,1.2E1,3.9E1,1E0,2.6E1,1.1E2,2.9E1,1.2E1,3.6E1,2.7E1],"tree_param":{"num_deleted":"0","num_feature":"20","num_nodes":"95","size_leaf_vector":"1"}},{"base_weights":[4.75453E-4,-1.3178672E-1,1.2257525E-1,-2.398085E-1,-8.666776E-2,7.777697E-2,2.5681156E-1,-4.2287197E-2,-2.2096272E-1,-1.2815608E-1,-5.0952684E-2,3.5438467E-2,1.2516207E-1,2.1167651E-1,3.528521E-1,-2.5900918E-1,-1.9444865E-1,-1.5710405E-1,-1.1128278E-1,-7.185816E-2,-2.8677128E-2,1.0469925E-2,5.4507617E-2,8.949638E-2,1.4038362E-1,1.5495995E-1,2.342889E-1,2.3940635E-1,3.8804317E-1,-3.0211484E-2,-2.3596346E-2,-2.1983841E-2,-1.7710155E-1,-1.8072635E-2,-1.3057998E-1,-1.3071334E-1,-9.302984E-2,-9.556342E-2,-5.4729443E-2,-5.3146135E-2,-1.0566575E-2,-1.6202139E-2,2.5557553E-2,2.4414066E-2,7.215282E-2,6.1437164E-2,1.0440184E-1,1.1385887E-1,1.636132E-1,1.2068194E-2,1.7849654E-2,1.8877191E-2,2.5659412E-1,1.3604245E-2,2.5922159E-2,3.3564672E-2,4.718582E-2,-1.8548338E-2,-1.2841477E-2,-1.3768608E-2,-8.606754E-3,-1.0087817E-2,-1.3888861E-2,-6.174439E-3,-1.033083E-2,-1.0712553E-2,-6.788857E-3,-6.526568E-3,-3.359297E-3,-7.574249E-3,-3.6441945E-3,8.360857E-4,-3.0621223E-3,-4.768128E-3,-4.7793865E-4,8.480701E-4,5.236033E-3,-1.0575132E-3,3.6496723E-3,9.062142E-3,4.3331515E-3,5.24483E-3,9.464383E-3,9.003012E-3,1.3650074E-2,8.7912E-3,1.3221251E-2,1.3893736E-2,1.910494E-2,2.2833323E-2,2.9535929E-2],"categories":[],"categories_nodes":[],"categories_segments":[],"categories_sizes":[],"default_left":[0,0,0,0,0,0,0,0,0,0,0,0,0,0,0,0,0,0,0,0,0,0,0,0,0,0,0,0,0,0,0,0,0,0,0,0,0,0,0,0,0,0,0,0,0,0,0,0,0,0,0,0,0,0,0,0,0,0,0,0,0,0,0,0,0,0,0,0,0,0,0,0,0,0,0,0,0,0,0,0,0,0,0,0,0,0,0,0,0,0,0],"id":12,"left_children":[1,3,5,7,9,11,13,-1,15,17,19,21,23,25,27,29,31,33,35,37,39,41,43,45,47,49,51,53,55,-1,-1,-1,57,-1,59,61,63,65,67,69,71,73,75,77,79,81,83,85,87,-1,-1,-1,89,-1,-1,-1,-1,-1,-1,-1,-1,-1,-1,-1,-1,-1,-1,-1,-1,-1,-1,-1,-1,-1,-1,-1,-1,-1,-1,-1,-1,-1,-1,-1,-1,-1,-1,-1,-1,-1,-1],"loss_changes":[2.5870998E1,3.727192E0,4.989318E0,6.8625546E-1,7.995467E-1,1.2514544E0,8.269472E-1,0E0,1.5845108E-1,1.0511732E-1,1.3484949E-1,1.5750414E-1,1.4758778E-1,1.4837408E-1,1.6659737E-1,1.0170937E-2,1.6561508E-2,3.2791376E-2,4.5295477E-2,5.608195E-2,6.325163E-2,5.8764726E-2,9.80677E-2,3.164524E-2,1.0768366E-1,1.3957381E-2,5.4104805E-2,1.6021729E-3,5.2419662E-2,0E0,0E0,0E0,8.828163E-3,0E0,2.6999712E-3,4.5263767E-3,2.1597505E-2,1.2566149E-2,1.7850429E-2,2.0264477E-2,3.214099E-2,1.882977E-2,4.2122707E-2,3.0402083E-2,5.888337E-2,5.1847547E-3,1.446718E-2,3.552282E-2,4.589629E-2,0E0,0E0,0E0,3.7693977E-3,0E0,0E0,0E0,0E0,0E0,0E0,0E0,0E0,0E0,0E0,0E0,0E0,0E0,0E0,0E0,0E0,0E0,0E0,0E0,0E0,0E0,0E0,0E0,0E0,0E0,0E0,0E0,0E0,0E0,0E0,0E0,0E0,0E0,0E0,0E0,0E0,0E0,0E0],"parents":[2147483647,0,0,1,1,2,2,3,3,4,4,5,5,6,6,8,8,9,9,10,10,11,11,12,12,13,13,14,14,15,15,16,16,17,17,18,18,19,19,20,20,21,21,22,22,23,23,24,24,25,25,26,26,27,27,28,28,32,32,34,34,35,35,36,36,37,37,38,38,39,39,40,40,41,41,42,42,43,43,44,44,45,45,46,46,47,47,48,48,52,52],"right_children":[2,4,6,8,10,12,14,-1,16,18,20,22,24,26,28,30,32,34,36,38,40,42,44,46,48,50,52,54,56,-1,-1,-1,58,-1,60,62,64,66,68,70,72,74,76,78,80,82,84,86,88,-1,-1,-1,90,-1,-1,-1,-1,-1,-1,-1,-1,-1,-1,-1,-1,-1,-1,-1,-1,-1,-1,-1,-1,-1,-1,-1,-1,-1,-1,-1,-1,-1,-1,-1,-1,-1,-1,-1,-1,-1,-1],"split_conditions":[9.986152E-1,7.7243686E-1,1.256465E0,5.1885253E-1,8.785058E-1,1.1225652E0,1.3952345E0,-4.2287197E-2,6.8053174E-1,1E0,9.4265574E-1,1.0565408E0,1E0,7.5946027E2,1E0,1E0,1E0,8.1016473E2,7.975925E2,1E0,1E0,1E0,1E0,1.1830829E0,1.1830829E0,1E0,1E0,5.961398E-1,1.5028877E0,-3.0211484E-2,-2.3596346E-2,-2.1983841E-2,8.611769E2,-1.8072635E-2,9.4421185E2,2E0,2E0,8.4088434E2,8.345876E2,7.82038E2,2E0,7.675604E2,8.3209973E2,7.4451404E2,2E0,9.007133E2,8.481958E2,7.921989E2,8.081188E2,1.2068194E-2,1.7849654E-2,1.8877191E-2,8.481958E2,1.3604245E-2,2.5922159E-2,3.3564672E-2,4.718582E-2,-1.8548338E-2,-1.2841477E-2,-1.3768608E-2,-8.606754E-3,-1.0087817E-2,-1.3888861E-2,-6.174439E-3,-1.033083E-2,-1.0712553E-2,-6.788857E-3,-6.526568E-3,-3.359297E-3,-7.574249E-3,-3.6441945E-3,8.360857E-4,-3.0621223E-3,-4.768128E-3,-4.7793865E-4,8.480701E-4,5.236033E-3,-1.0575132E-3,3.6496723E-3,9.062142E-3,4.3331515E-3,5.24483E-3,9.464383E-3,9.003012E-3,1.3650074E-2,8.7912E-3,1.3221251E-2,1.3893736E-2,1.910494E-2,2.2833323E-2,2.9535929E-2],"split_indices":[0,0,0,0,0,0,0,0,0,2,0,0,2,13,2,2,2,13,13,2,2,2,2,0,0,2,2,10,0,0,0,0,13,0,13,2,2,13,13,13,2,13,13,13,2,13,13,13,13,0,0,0,13,0,0,0,0,0,0,0,0,0,0,0,0,0,0,0,0,0,0,0,0,0,0,0,0,0,0,0,0,0,0,0,0,0,0,0,0,0,0],"split_type":[0,0,0,0,0,0,0,0,0,0,0,0,0,0,0,0,0,0,0,0,0,0,0,0,0,0,0,0,0,0,0,0,0,0,0,0,0,0,0,0,0,0,0,0,0,0,0,0,0,0,0,0,0,0,0,0,0,0,0,0,0,0,0,0,0,0,0,0,0,0,0,0,0,0,0,0,0,0,0,0,0,0,0,0,0,0,0,0,0,0,0],"sum_hessian":[1.6E3,7.68E2,8.32E2,2.25E2,5.43E2,6.25E2,2.07E2,1.9E1,2.06E2,2.5E2,2.93E2,3.31E2,2.94E2,1.43E2,6.4E1,8.1E1,1.25E2,8.9E1,1.61E2,1.5E2,1.43E2,1.44E2,1.87E2,9E1,2.04E2,4.3E1,1E2,1.7E1,4.7E1,2.4E1,5.7E1,4.6E1,7.9E1,4.4E1,4.5E1,7.5E1,8.6E1,6.1E1,8.9E1,6E1,8.3E1,5.2E1,9.2E1,7E1,1.17E2,3.3E1,5.7E1,9.8E1,1.06E2,2E1,2.3E1,3.6E1,6.4E1,4E0,1.3E1,3.2E1,1.5E1,6.5E1,1.4E1,3.7E1,8E0,1.9E1,5.6E1,2.3E1,6.3E1,4.1E1,2E1,5.8E1,3.1E1,2.4E1,3.6E1,4.3E1,4E1,1.3E1,3.9E1,5.7E1,3.5E1,1.8E1,5.2E1,7E1,4.7E1,2.8E1,5E0,4.2E1,1.5E1,4.3E1,5.5E1,5.9E1,4.7E1,4.1E1,2.3E1],"tree_param":{"num_deleted":"0","num_feature":"20","num_nodes":"91","size_leaf_vector":"1"}},{"base_weights":[4.6501038E-4,-1.0499076E-1,1.2548628E-1,-1.8627952E-1,-4.821672E-2,9.416096E-2,2.7421847E-1,-2.886288E-1,-1.6075616E-1,-7.87001E-2,-1.4287497E-2,5.8706045E-2,1.4000311E-1,2.3562394E-1,3.5227093E-1,-4.692172E-2,-2.6111552E-1,-1.9357976E-1,-1.4057548E-1,-1.2210686E-1,-7.171567E-2,-3.8807083E-2,1.6062468E-3,2.8015636E-2,7.460628E-2,1.08958706E-1,1.5680939E-1,1.8086001E-1,2.568988E-1,2.3691794E-2,3.828247E-1,-2.662832E-2,-1.18321655E-2,-2.2615476E-2,-1.7387759E-2,-1.625329E-1,-1.24378935E-1,-1.2376054E-2,-3.211403E-3,-9.745335E-2,-6.1928444E-2,-5.7881735E-2,-2.010077E-2,-8.034289E-3,4.0114846E-2,2.0873854E-2,8.995703E-3,6.1277833E-2,1.1046033E-1,9.740289E-2,1.4559125E-2,1.3365316E-1,1.7865019E-1,6.600205E-3,1.871567E-2,2.2857873E-2,3.0747062E-2,1.7104948E-2,4.000201E-1,-1.6627802E-2,-9.237536E-3,-1.2864726E-2,-7.915608E-3,-1.2173186E-2,-8.8706305E-3,-8.186544E-3,-5.0054938E-3,-8.194198E-3,-4.6272175E-3,-3.4780798E-3,-9.154725E-4,-6.352834E-3,-1.8511432E-4,2.8654803E-3,6.8048122E-3,4.0609483E-4,4.1805385E-3,7.7506835E-3,3.768184E-3,8.098716E-3,1.2659267E-2,7.804427E-3,1.1674458E-2,1.1536419E-2,1.5700668E-2,1.8741637E-2,1.1635674E-2,1.6408069E-2,4.12332E-2],"categories":[],"categories_nodes":[],"categories_segments":[],"categories_sizes":[],"default_left":[0,0,0,0,0,0,0,0,0,0,0,0,0,0,0,0,0,0,0,0,0,0,0,0,0,0,0,0,0,0,0,0,0,0,0,0,0,0,0,0,0,0,0,0,0,0,0,0,0,0,0,0,0,0,0,0,0,0,0,0,0,0,0,0,0,0,0,0,0,0,0,0,0,0,0,0,0,0,0,0,0,0,0,0,0,0,0,0,0],"id":13,"left_children":[1,3,5,7,9,11,13,15,17,19,21,23,25,27,29,-1,31,33,35,37,39,41,43,45,47,49,51,53,55,-1,57,-1,-1,-1,-1,59,61,-1,-1,63,65,67,69,71,73,75,-1,77,79,81,-1,83,85,-1,-1,-1,-1,-1,87,-1,-1,-1,-1,-1,-1,-1,-1,-1,-1,-1,-1,-1,-1,-1,-1,-1,-1,-1,-1,-1,-1,-1,-1,-1,-1,-1,-1,-1,-1],"loss_changes":[2.1121101E1,4.0015326E0,3.389286E0,8.8619137E-1,5.2945995E-1,9.7835636E-1,2.9957104E-1,2.2528076E-1,1.6355944E-1,7.3099375E-2,9.515108E-2,1.6577661E-1,1.2065363E-1,5.6066036E-2,5.0281048E-2,0E0,1.4981747E-2,2.9349327E-2,4.450965E-2,1.3830662E-3,5.3161502E-2,3.3090904E-2,5.563758E-2,5.0764516E-2,1.0123181E-1,2.6457667E-2,6.1594963E-2,7.897496E-3,1.7082691E-2,0E0,4.082346E-2,0E0,0E0,0E0,0E0,4.083276E-3,1.085639E-2,0E0,0E0,2.580583E-3,3.68551E-2,9.336829E-3,7.716002E-3,4.1057736E-2,7.653594E-3,3.7837572E-2,0E0,6.103027E-2,1.8275917E-2,1.9345284E-2,0E0,1.8618703E-2,2.4063349E-2,0E0,0E0,0E0,0E0,0E0,1.0775566E-2,0E0,0E0,0E0,0E0,0E0,0E0,0E0,0E0,0E0,0E0,0E0,0E0,0E0,0E0,0E0,0E0,0E0,0E0,0E0,0E0,0E0,0E0,0E0,0E0,0E0,0E0,0E0,0E0,0E0,0E0],"parents":[2147483647,0,0,1,1,2,2,3,3,4,4,5,5,6,6,7,7,8,8,9,9,10,10,11,11,12,12,13,13,14,14,16,16,17,17,18,18,19,19,20,20,21,21,22,22,23,23,24,24,25,25,26,26,27,27,28,28,30,30,35,35,36,36,39,39,40,40,41,41,42,42,43,43,44,44,45,45,47,47,48,48,49,49,51,51,52,52,58,58],"right_children":[2,4,6,8,10,12,14,16,18,20,22,24,26,28,30,-1,32,34,36,38,40,42,44,46,48,50,52,54,56,-1,58,-1,-1,-1,-1,60,62,-1,-1,64,66,68,70,72,74,76,-1,78,80,82,-1,84,86,-1,-1,-1,-1,-1,88,-1,-1,-1,-1,-1,-1,-1,-1,-1,-1,-1,-1,-1,-1,-1,-1,-1,-1,-1,-1,-1,-1,-1,-1,-1,-1,-1,-1,-1,-1],"split_conditions":[1.035314E0,8.2562536E-1,1.3169966E0,6.500045E-1,9.4265574E-1,1.1688637E0,1.4399338E0,4.156216E-1,7.346346E-1,6.819988E2,1E0,1E0,1E0,1E0,1E0,-4.692172E-2,9.7547754E2,1E0,7.7941547E2,1.428E2,8.593219E-1,7.960786E2,8.816081E2,9.2724005E2,8.5850397E2,8.5403284E2,8.034223E2,7.024297E2,8.42935E2,2.3691794E-2,6.217885E2,-2.662832E-2,-1.18321655E-2,-2.2615476E-2,-1.7387759E-2,-8.1341E2,9.6945953E2,-1.2376054E-2,-3.211403E-3,1E0,1E0,7.115964E2,9.870035E-1,6.464624E2,7.6987106E-1,1.0998237E0,8.995703E-3,2E0,1.0917498E0,1.2497402E0,1.4559125E-2,1.2373254E0,2E0,6.600205E-3,1.871567E-2,2.2857873E-2,3.0747062E-2,1.7104948E-2,3.8E-1,-1.6627802E-2,-9.237536E-3,-1.2864726E-2,-7.915608E-3,-1.2173186E-2,-8.8706305E-3,-8.186544E-3,-5.0054938E-3,-8.194198E-3,-4.6272175E-3,-3.4780798E-3,-9.154725E-4,-6.352834E-3,-1.8511432E-4,2.8654803E-3,6.8048122E-3,4.0609483E-4,4.1805385E-3,7.7506835E-3,3.768184E-3,8.098716E-3,1.2659267E-2,7.804427E-3,1.1674458E-2,1.1536419E-2,1.5700668E-2,1.8741637E-2,1.1635674E-2,1.6408069E-2,4.12332E-2],"split_indices":[0,0,0,0,0,0,0,0,0,13,2,2,2,2,2,0,13,2,13,9,0,13,13,13,13,13,13,13,13,0,13,0,0,0,0,18,13,0,0,2,2,13,0,13,10,0,0,2,0,0,0,0,2,0,0,0,0,0,19,0,0,0,0,0,0,0,0,0,0,0,0,0,0,0,0,0,0,0,0,0,0,0,0,0,0,0,0,0,0],"split_type":[0,0,0,0,0,0,0,0,0,0,0,0,0,0,0,0,0,0,0,0,0,0,0,0,0,0,0,0,0,0,0,0,0,0,0,0,0,0,0,0,0,0,0,0,0,0,0,0,0,0,0,0,0,0,0,0,0,0,0,0,0,0,0,0,0,0,0,0,0,0,0,0,0,0,0,0,0,0,0,0,0,0,0,0,0,0,0,0,0],"sum_hessian":[1.6E3,8.68E2,7.32E2,3.56E2,5.12E2,6.06E2,1.26E2,6.9E1,2.87E2,2.69E2,2.43E2,3.43E2,2.63E2,8.7E1,3.9E1,7E0,6.2E1,1.06E2,1.81E2,3.5E1,2.34E2,9.5E1,1.48E2,1.18E2,2.25E2,9.5E1,1.68E2,2.7E1,6E1,1E1,2.9E1,5.9E1,3E0,3.6E1,7E1,7.3E1,1.08E2,3.4E1,1E0,6.2E1,1.72E2,4.6E1,4.9E1,1.19E2,2.9E1,1.07E2,1.1E1,1.66E2,5.9E1,7.5E1,2E1,8.5E1,8.3E1,2E0,2.5E1,4.2E1,1.8E1,3E0,2.6E1,6.8E1,5E0,9.7E1,1.1E1,1.3E1,4.9E1,6.2E1,1.1E2,1.3E1,3.3E1,2E1,2.9E1,1.1E1,1.08E2,2.2E1,7E0,6E1,4.7E1,9.7E1,6.9E1,2.3E1,3.6E1,4E1,3.5E1,5.1E1,3.4E1,7.1E1,1.2E1,2E0,2.4E1],"tree_param":{"num_deleted":"0","num_feature":"20","num_nodes":"89","size_leaf_vector":"1"}},{"base_weights":[4.678199E-4,-1.13522924E-1,9.493907E-2,-1.9579767E-1,-7.618238E-2,5.2261185E-2,1.9314256E-1,-3.5029948E-2,-1.7992409E-1,-1.0773907E-1,-5.0066452E-2,1.5593921E-2,8.589101E-2,1.6070192E-1,2.9048765E-1,-2.1079427E-1,-1.5840599E-1,-1.3229018E-1,-9.311197E-2,-9.226844E-2,-4.2732503E-2,-8.336623E-3,2.9331379E-2,5.65076E-2,9.924521E-2,1.4145508E-1,2.0061629E-1,1.9789433E-1,3.1915832E-1,-2.4931433E-2,-1.9055642E-2,-1.7450584E-2,-1.3585518E-1,-1.4287948E-2,-9.231943E-3,-1.0879731E-1,-7.8243814E-2,-1.0739654E-2,-7.6417373E-3,-6.0706265E-2,-3.0280296E-2,-2.0731863E-2,1.2424666E-2,4.6140395E-2,8.171036E-3,3.467784E-2,7.061157E-2,1.1283304E-1,6.761276E-2,1.105723E-1,1.6157395E-1,1.7560767E-1,2.3647442E-2,1.1161447E-2,2.1457328E-2,2.799453E-1,4.0319752E-2,-1.3785116E-2,-5.3977054E-3,-8.448328E-3,-1.1524546E-2,-5.2706017E-3,-8.557454E-3,-7.6356316E-3,-4.540022E-3,-8.7749533E-4,-4.3774764E-3,-6.7849094E-3,-1.5077791E-3,-2.3435592E-4,2.528557E-3,2.404814E-3,6.131939E-3,-2.1637897E-3,1.9097397E-3,1.2241157E-3,4.5459E-3,5.3678346E-3,8.744552E-3,7.0330463E-3,1.2322678E-2,5.7405336E-3,9.485825E-3,9.04519E-3,1.2517871E-2,1.3131909E-2,1.7926969E-2,4.6716216E-3,1.7766206E-2,2.1707078E-2,3.1008957E-2],"categories":[],"categories_nodes":[],"categories_segments":[],"categories_sizes":[],"default_left":[0,0,0,0,0,0,0,0,0,0,0,0,0,0,0,0,0,0,0,0,0,0,0,0,0,0,0,0,0,0,0,0,0,0,0,0,0,0,0,0,0,0,0,0,0,0,0,0,0,0,0,0,0,0,0,0,0,0,0,0,0,0,0,0,0,0,0,0,0,0,0,0,0,0,0,0,0,0,0,0,0,0,0,0,0,0,0,0,0,0,0],"id":14,"left_children":[1,3,5,7,9,11,13,-1,15,17,19,21,23,25,27,29,31,33,35,37,39,41,43,45,47,49,51,53,55,-1,-1,-1,57,-1,-1,59,61,-1,-1,63,65,67,69,71,73,75,77,79,81,83,85,87,-1,-1,-1,89,-1,-1,-1,-1,-1,-1,-1,-1,-1,-1,-1,-1,-1,-1,-1,-1,-1,-1,-1,-1,-1,-1,-1,-1,-1,-1,-1,-1,-1,-1,-1,-1,-1,-1,-1],"loss_changes":[1.7251703E1,2.2154884E0,3.661325E0,4.9123764E-1,4.074962E-1,7.533262E-1,7.901716E-1,0E0,1.0411215E-1,6.8841696E-2,8.148104E-2,9.689551E-2,1.1956525E-1,1.2603521E-1,1.0939646E-1,1.6415834E-2,2.2038698E-2,2.151692E-2,2.5303006E-2,1.3849139E-3,5.1205486E-2,2.805043E-2,6.6136E-2,2.8955758E-2,8.6070776E-2,6.849861E-2,1.4969349E-2,1.9534826E-3,4.530716E-2,0E0,0E0,0E0,1.8745661E-3,0E0,0E0,9.2476606E-4,1.0092109E-2,0E0,0E0,1.9529283E-2,4.082474E-2,1.709247E-2,7.846501E-3,3.340055E-2,2.777229E-2,9.603053E-3,1.2694299E-2,5.8039308E-2,1.3465881E-2,5.722761E-3,2.0359993E-2,2.5568008E-3,0E0,0E0,0E0,9.198189E-4,0E0,0E0,0E0,0E0,0E0,0E0,0E0,0E0,0E0,0E0,0E0,0E0,0E0,0E0,0E0,0E0,0E0,0E0,0E0,0E0,0E0,0E0,0E0,0E0,0E0,0E0,0E0,0E0,0E0,0E0,0E0,0E0,0E0,0E0,0E0],"parents":[2147483647,0,0,1,1,2,2,3,3,4,4,5,5,6,6,8,8,9,9,10,10,11,11,12,12,13,13,14,14,15,15,16,16,17,17,18,18,19,19,20,20,21,21,22,22,23,23,24,24,25,25,26,26,27,27,28,28,32,32,35,35,36,36,39,39,40,40,41,41,42,42,43,43,44,44,45,45,46,46,47,47,48,48,49,49,50,50,51,51,55,55],"right_children":[2,4,6,8,10,12,14,-1,16,18,20,22,24,26,28,30,32,34,36,38,40,42,44,46,48,50,52,54,56,-1,-1,-1,58,-1,-1,60,62,-1,-1,64,66,68,70,72,74,76,78,80,82,84,86,88,-1,-1,-1,90,-1,-1,-1,-1,-1,-1,-1,-1,-1,-1,-1,-1,-1,-1,-1,-1,-1,-1,-1,-1,-1,-1,-1,-1,-1,-1,-1,-1,-1,-1,-1,-1,-1,-1,-1],"split_conditions":[9.805844E-1,7.7243686E-1,1.2273272E0,5.1885253E-1,8.6523026E-1,1.0917498E0,1.3952345E0,-3.5029948E-2,6.8053174E-1,1E0,6.884524E2,1E0,1E0,1.3169966E0,1E0,1E0,7.9642426E2,8.708866E2,7.975925E2,1E0,1E0,8.362476E2,2E0,7.921989E2,2E0,1E0,8.478531E2,5.961398E-1,1.5421588E0,-2.4931433E-2,-1.9055642E-2,-1.7450584E-2,7.9E-1,-1.4287948E-2,-9.231943E-3,2E0,2E0,-1.0739654E-2,-7.6417373E-3,9.3095225E-1,2E0,6.464624E2,6.8644774E-1,7.847145E2,7.418693E2,1.1225652E0,1.1618946E0,7.115964E2,8.6670416E2,7.9298267E2,7.847145E2,5.17E1,2.3647442E-2,1.1161447E-2,2.1457328E-2,7.477127E2,4.0319752E-2,-1.3785116E-2,-5.3977054E-3,-8.448328E-3,-1.1524546E-2,-5.2706017E-3,-8.557454E-3,-7.6356316E-3,-4.540022E-3,-8.7749533E-4,-4.3774764E-3,-6.7849094E-3,-1.5077791E-3,-2.3435592E-4,2.528557E-3,2.404814E-3,6.131939E-3,-2.1637897E-3,1.9097397E-3,1.2241157E-3,4.5459E-3,5.3678346E-3,8.744552E-3,7.0330463E-3,1.2322678E-2,5.7405336E-3,9.485825E-3,9.04519E-3,1.2517871E-2,1.3131909E-2,1.7926969E-2,4.6716216E-3,1.7766206E-2,2.1707078E-2,3.1008957E-2],"split_indices":[0,0,0,0,0,0,0,0,0,2,13,2,2,0,2,2,13,13,13,2,2,13,2,13,2,2,13,10,0,0,0,0,19,0,0,2,2,0,0,0,2,13,10,13,13,0,0,13,13,13,13,9,0,0,0,13,0,0,0,0,0,0,0,0,0,0,0,0,0,0,0,0,0,0,0,0,0,0,0,0,0,0,0,0,0,0,0,0,0,0,0],"split_type":[0,0,0,0,0,0,0,0,0,0,0,0,0,0,0,0,0,0,0,0,0,0,0,0,0,0,0,0,0,0,0,0,0,0,0,0,0,0,0,0,0,0,0,0,0,0,0,0,0,0,0,0,0,0,0,0,0,0,0,0,0,0,0,0,0,0,0,0,0,0,0,0,0,0,0,0,0,0,0,0,0,0,0,0,0,0,0,0,0,0,0],"sum_hessian":[1.6E3,7.25E2,8.75E2,2.25E2,5E2,6.11E2,2.64E2,1.9E1,2.06E2,2.25E2,2.75E2,2.93E2,3.18E2,2E2,6.4E1,8.1E1,1.25E2,8.1E1,1.44E2,3.9E1,2.36E2,1.07E2,1.86E2,1.01E2,2.17E2,1.38E2,6.2E1,1.7E1,4.7E1,2.4E1,5.7E1,6.9E1,5.6E1,6.2E1,1.9E1,6.7E1,7.7E1,1.7E1,2.2E1,9.5E1,1.41E2,6.7E1,4E1,1.03E2,8.3E1,4.1E1,6E1,1.5E2,6.7E1,5.7E1,8.1E1,4E1,2.2E1,4E0,1.3E1,3.5E1,1.2E1,5.4E1,2E0,1.7E1,5E1,1.9E1,5.8E1,4.5E1,5E1,5.5E1,8.6E1,6E0,6.1E1,1.9E1,2.1E1,4.3E1,6E1,2.2E1,6.1E1,1.4E1,2.7E1,3.2E1,2.8E1,3.1E1,1.19E2,5.1E1,1.6E1,2.7E1,3E1,3.3E1,4.8E1,1E0,3.9E1,1.4E1,2.1E1],"tree_param":{"num_deleted":"0","num_feature":"20","num_nodes":"91","size_leaf_vector":"1"}},{"base_weights":[4.662015E-4,-8.918465E-2,9.87999E-2,-1.5489943E-1,-4.4451658E-2,7.1960755E-2,2.1791181E-1,-2.6299578E-1,-1.3788506E-1,-7.0276305E-2,-1.8552803E-2,3.9329644E-2,1.0718003E-1,1.869071E-1,2.907509E-1,-3.9750952E-2,-2.2775616E-1,-1.6856474E-1,-1.19786605E-1,-9.12733E-2,-5.89065E-2,-3.830357E-2,-4.3189023E-3,3.0196445E-2,7.290987E-2,9.864127E-2,1.489063E-1,1.3992266E-1,2.0765069E-1,1.9680908E-2,3.1550452E-1,-2.3315875E-2,-8.700649E-3,-1.9932425E-2,-1.5150794E-1,-1.4453637E-2,-1.09337516E-1,-1.1261602E-1,-7.8439005E-2,-7.5967856E-2,-5.0154533E-2,-5.7054702E-2,-2.5399648E-2,1.3299975E-2,-2.1879416E-2,9.771496E-3,4.1080218E-2,4.2429265E-2,8.9264095E-2,8.6380966E-2,1.22133516E-1,1.0106749E-2,1.6169004E-2,1.0488619E-2,1.620627E-2,1.8460529E-1,2.504378E-2,1.4194054E-2,3.2953236E-1,-1.595839E-2,-1.1551749E-2,-1.2649611E-2,-9.432438E-3,-1.1655307E-2,-3.833151E-3,-9.01417E-3,-5.722017E-3,-2.6836952E-3,-7.734142E-3,-6.234897E-3,-3.7726115E-3,-7.197708E-3,-4.6098675E-3,-2.9221221E-3,1.6412417E-3,4.6298504E-4,5.3626723E-3,-4.4275313E-3,-1.155278E-3,-2.6385495E-4,3.0654178E-3,7.038946E-5,4.71595E-3,2.6253588E-3,7.554284E-3,1.0151517E-2,5.8811014E-3,6.0258913E-3,9.716034E-3,9.560737E-3,1.4003632E-2,4.9948813E-3,1.8640757E-2,1.3867068E-2,3.3925444E-2],"categories":[],"categories_nodes":[],"categories_segments":[],"categories_sizes":[],"default_left":[0,0,0,0,0,0,0,0,0,0,0,0,0,0,0,0,0,0,0,0,0,0,0,0,0,0,0,0,0,0,0,0,0,0,0,0,0,0,0,0,0,0,0,0,0,0,0,0,0,0,0,0,0,0,0,0,0,0,0,0,0,0,0,0,0,0,0,0,0,0,0,0,0,0,0,0,0,0,0,0,0,0,0,0,0,0,0,0,0,0,0,0,0,0,0],"id":15,"left_children":[1,3,5,7,9,11,13,15,17,19,21,23,25,27,29,-1,31,33,35,37,39,41,43,45,47,49,51,53,55,-1,57,-1,-1,-1,59,-1,61,63,65,67,69,71,73,75,77,79,81,83,85,87,89,-1,-1,-1,-1,91,-1,-1,93,-1,-1,-1,-1,-1,-1,-1,-1,-1,-1,-1,-1,-1,-1,-1,-1,-1,-1,-1,-1,-1,-1,-1,-1,-1,-1,-1,-1,-1,-1,-1,-1,-1,-1,-1,-1],"loss_changes":[1.4122746E1,2.4565148E0,2.4267206E0,5.872221E-1,3.3311057E-1,7.140622E-1,2.6182652E-1,1.22774124E-1,1.436081E-1,5.4306388E-2,7.0398316E-2,9.778088E-2,9.219837E-2,6.938219E-2,3.0921698E-2,0E0,8.609533E-3,2.5939226E-2,3.307438E-2,1.472348E-2,2.082771E-2,2.3956954E-2,4.5772284E-2,5.695212E-2,3.0608147E-2,6.2031746E-2,1.3624787E-2,9.37593E-3,2.0818949E-2,0E0,2.6267529E-2,0E0,0E0,0E0,2.78306E-3,0E0,2.3360252E-2,4.3061674E-3,8.996189E-3,1.5685558E-3,1.4622271E-2,3.5485327E-3,1.0706011E-2,2.562492E-2,1.6602796E-2,2.366399E-2,4.1203916E-2,1.1943225E-2,1.0445446E-2,4.1732192E-2,2.650261E-2,0E0,0E0,0E0,0E0,2.3384094E-3,0E0,0E0,3.0560493E-3,0E0,0E0,0E0,0E0,0E0,0E0,0E0,0E0,0E0,0E0,0E0,0E0,0E0,0E0,0E0,0E0,0E0,0E0,0E0,0E0,0E0,0E0,0E0,0E0,0E0,0E0,0E0,0E0,0E0,0E0,0E0,0E0,0E0,0E0,0E0,0E0],"parents":[2147483647,0,0,1,1,2,2,3,3,4,4,5,5,6,6,7,7,8,8,9,9,10,10,11,11,12,12,13,13,14,14,16,16,17,17,18,18,19,19,20,20,21,21,22,22,23,23,24,24,25,25,26,26,27,27,28,28,30,30,34,34,36,36,37,37,38,38,39,39,40,40,41,41,42,42,43,43,44,44,45,45,46,46,47,47,48,48,49,49,50,50,55,55,58,58],"right_children":[2,4,6,8,10,12,14,16,18,20,22,24,26,28,30,-1,32,34,36,38,40,42,44,46,48,50,52,54,56,-1,58,-1,-1,-1,60,-1,62,64,66,68,70,72,74,76,78,80,82,84,86,88,90,-1,-1,-1,-1,92,-1,-1,94,-1,-1,-1,-1,-1,-1,-1,-1,-1,-1,-1,-1,-1,-1,-1,-1,-1,-1,-1,-1,-1,-1,-1,-1,-1,-1,-1,-1,-1,-1,-1,-1,-1,-1,-1,-1],"split_conditions":[1.0264232E0,8.1676114E-1,1.3057818E0,6.135872E-1,9.283924E-1,1.1476423E0,1.4399338E0,4.156216E-1,7.2012657E-1,7.5073285E2,1E0,8.816081E2,8.892923E2,1E0,1E0,-3.9750952E-2,9.7547754E2,1E0,7.36667E2,1E0,1E0,7.82038E2,2E0,1E0,1E0,1.2417032E0,1.184624E0,8.006251E2,8.481958E2,1.9680908E-2,6.217885E2,-2.3315875E-2,-8.700649E-3,-1.9932425E-2,8.611769E2,-1.4453637E-2,1E0,5.57E0,8.9025015E-1,6.29E1,8.6523026E-1,7.075356E2,1.0025091E3,9.0692834E2,7.4872723E2,1.0998237E0,6.6189215E2,9.2724005E2,2E0,1E0,1E0,1.0106749E-2,1.6169004E-2,1.0488619E-2,1.620627E-2,5.109266E-1,2.504378E-2,1.4194054E-2,3.8E-1,-1.595839E-2,-1.1551749E-2,-1.2649611E-2,-9.432438E-3,-1.1655307E-2,-3.833151E-3,-9.01417E-3,-5.722017E-3,-2.6836952E-3,-7.734142E-3,-6.234897E-3,-3.7726115E-3,-7.197708E-3,-4.6098675E-3,-2.9221221E-3,1.6412417E-3,4.6298504E-4,5.3626723E-3,-4.4275313E-3,-1.155278E-3,-2.6385495E-4,3.0654178E-3,7.038946E-5,4.71595E-3,2.6253588E-3,7.554284E-3,1.0151517E-2,5.8811014E-3,6.0258913E-3,9.716034E-3,9.560737E-3,1.4003632E-2,4.9948813E-3,1.8640757E-2,1.3867068E-2,3.3925444E-2],"split_indices":[0,0,0,0,0,0,0,0,0,13,2,13,13,2,2,0,13,2,13,2,2,13,2,2,2,0,0,13,13,0,13,0,0,0,13,0,2,16,0,9,0,13,13,13,13,0,13,13,2,2,2,0,0,0,0,10,0,0,19,0,0,0,0,0,0,0,0,0,0,0,0,0,0,0,0,0,0,0,0,0,0,0,0,0,0,0,0,0,0,0,0,0,0,0,0],"split_type":[0,0,0,0,0,0,0,0,0,0,0,0,0,0,0,0,0,0,0,0,0,0,0,0,0,0,0,0,0,0,0,0,0,0,0,0,0,0,0,0,0,0,0,0,0,0,0,0,0,0,0,0,0,0,0,0,0,0,0,0,0,0,0,0,0,0,0,0,0,0,0,0,0,0,0,0,0,0,0,0,0,0,0,0,0,0,0,0,0,0,0,0,0,0,0],"sum_hessian":[1.6E3,8.37E2,7.63E2,3.38E2,4.99E2,6.24E2,1.39E2,4.4E1,2.94E2,2.49E2,2.5E2,3.25E2,2.99E2,1E2,3.9E1,7E0,3.7E1,1.06E2,1.88E2,8.5E1,1.64E2,1.04E2,1.46E2,2.57E2,6.8E1,2.51E2,4.8E1,3.3E1,6.7E1,1E1,2.9E1,3.5E1,2E0,3.4E1,7.2E1,5.2E1,1.36E2,2.9E1,5.6E1,5.3E1,1.11E2,4.1E1,6.3E1,7.3E1,7.3E1,9E1,1.67E2,2.5E1,4.3E1,1.68E2,8.3E1,1.2E1,3.6E1,1.5E1,1.8E1,4.7E1,2E1,3E0,2.6E1,5.6E1,1.6E1,6E1,7.6E1,2.7E1,2E0,3.4E1,2.2E1,2E0,5.1E1,5.4E1,5.7E1,1.5E1,2.6E1,5.8E1,5E0,6.1E1,1.2E1,2.2E1,5.1E1,5.7E1,3.3E1,2.2E1,1.45E2,1.8E1,7E0,2.9E1,1.4E1,5.1E1,1.17E2,3.6E1,4.7E1,1E0,4.6E1,2E0,2.4E1],"tree_param":{"num_deleted":"0","num_feature":"20","num_nodes":"95","size_leaf_vector":"1"}},{"base_weights":[4.428084E-4,-7.748181E-2,9.282486E-2,-1.3730864E-1,-3.5696886E-2,6.805841E-2,1.9724235E-1,-2.1516816E-1,-1.1790769E-1,-5.5971395E-2,-8.223478E-3,4.308898E-2,1.0200831E-1,1.689627E-1,2.637174E-1,-3.6272746E-2,-1.9301511E-1,-1.3887402E-1,-1.0097722E-1,-9.154141E-2,-5.035582E-2,-5.7713296E-2,-3.772784E-3,2.2375872E-2,5.5722978E-2,9.463576E-2,1.4784408E-2,1.2671559E-1,1.876015E-1,2.3189753E-1,3.4755282E-2,-2.0699343E-2,-1.4301538E-2,-1.6340783E-2,-1.246618E-1,-1.1731451E-1,-8.535712E-2,-9.56926E-2,-5.276112E-3,-6.3546754E-2,-3.7964415E-2,-6.367491E-3,-6.6802505E-4,-2.1882888E-2,7.5581037E-3,4.983803E-3,3.361842E-2,4.636248E-2,8.531096E-2,7.3094346E-2,1.06507845E-1,9.155964E-3,1.4411882E-2,1.9590347E-1,1.1141052E-2,1.8375436E-2,2.6855607E-2,-1.40295895E-2,-1.0649218E-2,-1.3583778E-2,-9.864422E-3,-8.885562E-3,-5.6086867E-3,-1.0141272E-2,-5.9141736E-3,-6.671292E-3,-2.1097828E-3,-4.347577E-3,-1.6320294E-3,-2.6691146E-3,2.0042318E-4,2.2824777E-4,4.6093864E-3,-3.8549663E-3,8.3668047E-4,4.644123E-3,1.580506E-3,2.4050965E-3,5.6219436E-3,7.1383826E-3,1.0814692E-2,6.0072155E-3,8.849288E-3,1.1345481E-2,6.849304E-3,1.6525233E-2,2.2724552E-2],"categories":[],"categories_nodes":[],"categories_segments":[],"categories_sizes":[],"default_left":[0,0,0,0,0,0,0,0,0,0,0,0,0,0,0,0,0,0,0,0,0,0,0,0,0,0,0,0,0,0,0,0,0,0,0,0,0,0,0,0,0,0,0,0,0,0,0,0,0,0,0,0,0,0,0,0,0,0,0,0,0,0,0,0,0,0,0,0,0,0,0,0,0,0,0,0,0,0,0,0,0,0,0,0,0,0,0],"id":16,"left_children":[1,3,5,7,9,11,13,15,17,19,21,23,25,27,29,-1,31,33,35,37,39,41,43,45,47,49,-1,51,53,55,-1,-1,-1,-1,57,59,61,63,-1,65,67,-1,-1,69,71,73,75,77,79,81,83,-1,-1,85,-1,-1,-1,-1,-1,-1,-1,-1,-1,-1,-1,-1,-1,-1,-1,-1,-1,-1,-1,-1,-1,-1,-1,-1,-1,-1,-1,-1,-1,-1,-1,-1,-1],"loss_changes":[1.1532529E1,2.1674771E0,1.8821511E0,5.138955E-1,2.852857E-1,4.9914408E-1,2.186265E-1,1.5881038E-1,8.82082E-2,5.4315507E-2,4.8020087E-2,8.877438E-2,7.08282E-2,5.5758953E-2,2.6108503E-2,0E0,1.4428139E-2,2.3562908E-2,3.1582475E-2,1.2295246E-3,3.9595187E-2,5.050946E-3,4.1616514E-2,2.5642559E-2,5.5036783E-2,4.8222423E-2,0E0,7.606685E-3,2.118659E-2,7.1270466E-3,0E0,0E0,0E0,0E0,8.921146E-3,1.3229728E-2,3.925264E-3,1.1108518E-3,0E0,1.5123695E-2,1.5394419E-2,0E0,0E0,9.012222E-3,2.5307322E-2,8.128047E-3,1.7539375E-2,3.4715325E-2,8.182049E-3,1.0926366E-2,2.893722E-2,0E0,0E0,2.008748E-2,0E0,0E0,0E0,0E0,0E0,0E0,0E0,0E0,0E0,0E0,0E0,0E0,0E0,0E0,0E0,0E0,0E0,0E0,0E0,0E0,0E0,0E0,0E0,0E0,0E0,0E0,0E0,0E0,0E0,0E0,0E0,0E0,0E0],"parents":[2147483647,0,0,1,1,2,2,3,3,4,4,5,5,6,6,7,7,8,8,9,9,10,10,11,11,12,12,13,13,14,14,16,16,17,17,18,18,19,19,20,20,21,21,22,22,23,23,24,24,25,25,27,27,28,28,29,29,34,34,35,35,36,36,37,37,39,39,40,40,43,43,44,44,45,45,46,46,47,47,48,48,49,49,50,50,53,53],"right_children":[2,4,6,8,10,12,14,16,18,20,22,24,26,28,30,-1,32,34,36,38,40,42,44,46,48,50,-1,52,54,56,-1,-1,-1,-1,58,60,62,64,-1,66,68,-1,-1,70,72,74,76,78,80,82,84,-1,-1,86,-1,-1,-1,-1,-1,-1,-1,-1,-1,-1,-1,-1,-1,-1,-1,-1,-1,-1,-1,-1,-1,-1,-1,-1,-1,-1,-1,-1,-1,-1,-1,-1,-1],"split_conditions":[1.035314E0,8.2562536E-1,1.3057818E0,6.500045E-1,9.5197666E-1,1.1688637E0,1.4399338E0,4.156216E-1,7.507996E-1,6.819988E2,6.464624E2,1.0849113E0,9.0606384E2,1E0,1.6012257E0,-3.6272746E-2,8.6414197E2,1E0,7.918574E2,-9.2118E2,8.9025015E-1,1.0320518E0,1E0,1E0,8.816081E2,1E0,1.4784408E-2,7.8788525E2,2E0,8.138359E2,3.4755282E-2,-2.0699343E-2,-1.4301538E-2,-1.6340783E-2,7.7941547E2,1E0,9.6945953E2,5.57E0,-5.276112E-3,9.6945953E2,8.8528265E2,-6.367491E-3,-6.6802505E-4,9.132869E2,9.0965936E2,6.914175E2,2E0,1E0,9.51625E2,1.2497402E0,2E0,9.155964E-3,1.4411882E-2,8.015258E2,1.1141052E-2,1.8375436E-2,2.6855607E-2,-1.40295895E-2,-1.0649218E-2,-1.3583778E-2,-9.864422E-3,-8.885562E-3,-5.6086867E-3,-1.0141272E-2,-5.9141736E-3,-6.671292E-3,-2.1097828E-3,-4.347577E-3,-1.6320294E-3,-2.6691146E-3,2.0042318E-4,2.2824777E-4,4.6093864E-3,-3.8549663E-3,8.3668047E-4,4.644123E-3,1.580506E-3,2.4050965E-3,5.6219436E-3,7.1383826E-3,1.0814692E-2,6.0072155E-3,8.849288E-3,1.1345481E-2,6.849304E-3,1.6525233E-2,2.2724552E-2],"split_indices":[0,0,0,0,0,0,0,0,0,13,13,0,13,2,0,0,13,2,13,18,0,0,2,2,13,2,0,13,2,13,0,0,0,0,13,2,13,16,0,13,13,0,0,13,13,13,2,2,13,0,2,0,0,13,0,0,0,0,0,0,0,0,0,0,0,0,0,0,0,0,0,0,0,0,0,0,0,0,0,0,0,0,0,0,0,0,0],"split_type":[0,0,0,0,0,0,0,0,0,0,0,0,0,0,0,0,0,0,0,0,0,0,0,0,0,0,0,0,0,0,0,0,0,0,0,0,0,0,0,0,0,0,0,0,0,0,0,0,0,0,0,0,0,0,0,0,0,0,0,0,0,0,0,0,0,0,0,0,0,0,0,0,0,0,0,0,0,0,0,0,0,0,0,0,0,0,0],"sum_hessian":[1.6E3,8.68E2,7.32E2,3.56E2,5.12E2,5.93E2,1.39E2,6.9E1,2.87E2,2.94E2,2.18E2,3.43E2,2.5E2,1E2,3.9E1,7E0,6.2E1,1.25E2,1.62E2,3.8E1,2.56E2,1.7E1,2.01E2,1.31E2,2.12E2,2.18E2,3.2E1,3.3E1,6.7E1,3.1E1,8E0,4.6E1,1.6E1,4.2E1,8.3E1,7.6E1,8.6E1,3.3E1,5E0,1.22E2,1.34E2,1.5E1,2E0,7.7E1,1.24E2,5.2E1,7.9E1,1.63E2,4.9E1,8E1,1.38E2,1.3E1,2E1,5.9E1,8E0,1.6E1,1.5E1,4.1E1,4.2E1,3.5E1,4.1E1,7.5E1,1.1E1,2.7E1,6E0,1.13E2,9E0,1.06E2,2.8E1,6.4E1,1.3E1,1.1E2,1.4E1,3E0,4.9E1,4.5E1,3.4E1,5.1E1,1.12E2,3.3E1,1.6E1,4.6E1,3.4E1,1.15E2,2.3E1,3.3E1,2.6E1],"tree_param":{"num_deleted":"0","num_feature":"20","num_nodes":"87","size_leaf_vector":"1"}},{"base_weights":[4.234974E-4,-8.063931E-2,7.304376E-2,-1.4471555E-1,-5.3267375E-2,4.499973E-2,1.5500998E-1,-2.6432344E-1,-1.3246012E-1,-7.6701574E-2,-3.2220382E-2,1.7158896E-2,7.116015E-2,1.2678036E-1,2.182048E-1,-2.823003E-1,-1.2184098E-2,-1.5922324E-1,-1.1792477E-1,-9.609478E-2,-6.545411E-2,-4.2029772E-2,-1.4497642E-2,1.3158999E-2,6.597678E-2,6.567985E-2,1.1928666E-1,1.11004606E-1,1.6507924E-2,1.4698267E-1,2.4036717E-1,-2.9095752E-2,-7.18925E-3,-1.9671831E-2,-1.4139727E-2,-1.3219173E-1,-1.01294205E-1,-1.1203546E-2,-7.8411624E-2,-4.2957146E-2,-7.297007E-2,-7.1583904E-2,-3.6610473E-2,-3.3183567E-2,-4.666686E-3,-3.0188213E-4,2.3381162E-2,2.1079937E-3,6.924887E-2,4.362461E-2,7.519626E-2,1.2442395E-1,5.221963E-3,8.317542E-2,1.276237E-1,7.380617E-3,1.5669756E-2,2.0569507E-2,2.9685545E-1,-1.5595044E-2,-1.1674154E-2,-1.0202962E-2,-2.6010573E-3,-8.293982E-3,-5.058017E-3,-4.732177E-3,-8.154988E-4,-9.7882645E-3,-6.5722317E-3,-7.7209407E-3,-3.902642E-3,-4.599105E-3,-2.3932513E-3,-3.855347E-3,-1.5903473E-3,-2.142357E-3,6.890861E-4,-4.4221575E-3,3.9386313E-4,7.2485994E-4,3.3574123E-3,7.7628656E-3,4.139948E-3,2.783085E-3,5.6018876E-3,8.497924E-3,5.08693E-3,3.2986999E-3,1.26511445E-2,5.32723E-3,8.934273E-3,9.231876E-3,1.3778101E-2,8.697963E-3,3.0504853E-2],"categories":[],"categories_nodes":[],"categories_segments":[],"categories_sizes":[],"default_left":[0,0,0,0,0,0,0,0,0,0,0,0,0,0,0,0,0,0,0,0,0,0,0,0,0,0,0,0,0,0,0,0,0,0,0,0,0,0,0,0,0,0,0,0,0,0,0,0,0,0,0,0,0,0,0,0,0,0,0,0,0,0,0,0,0,0,0,0,0,0,0,0,0,0,0,0,0,0,0,0,0,0,0,0,0,0,0,0,0,0,0,0,0,0,0],"id":17,"left_children":[1,3,5,7,9,11,13,15,17,19,21,23,25,27,29,31,-1,33,35,37,39,41,43,45,47,49,51,53,-1,55,57,-1,-1,-1,-1,59,61,-1,63,65,67,69,71,73,75,77,79,-1,81,83,85,87,-1,89,91,-1,-1,-1,93,-1,-1,-1,-1,-1,-1,-1,-1,-1,-1,-1,-1,-1,-1,-1,-1,-1,-1,-1,-1,-1,-1,-1,-1,-1,-1,-1,-1,-1,-1,-1,-1,-1,-1,-1,-1],"loss_changes":[9.430661E0,1.3199863E0,1.9353948E0,2.9626894E-1,2.599213E-1,4.5835376E-1,3.5588884E-1,1.6831994E-2,6.174898E-2,4.845941E-2,4.8416167E-2,5.907862E-2,7.788336E-2,7.290864E-2,6.7269325E-2,1.0048628E-2,0E0,1.8971682E-2,1.9352674E-2,1.6584456E-2,2.4257421E-2,2.6368707E-2,1.8582596E-2,3.922287E-2,1.9190684E-3,5.842626E-2,4.527986E-3,4.025948E-2,0E0,1.2309849E-3,3.2949686E-2,0E0,0E0,0E0,0E0,7.856607E-3,1.110971E-3,0E0,1.602143E-3,6.145723E-3,1.5234113E-2,1.9319057E-3,1.7332941E-2,2.6345998E-3,1.3317082E-2,2.3268184E-2,2.6395686E-2,0E0,1.6870275E-3,1.625438E-2,4.4227123E-2,1.3621747E-3,0E0,3.355056E-3,1.13066435E-2,0E0,0E0,0E0,9.794235E-4,0E0,0E0,0E0,0E0,0E0,0E0,0E0,0E0,0E0,0E0,0E0,0E0,0E0,0E0,0E0,0E0,0E0,0E0,0E0,0E0,0E0,0E0,0E0,0E0,0E0,0E0,0E0,0E0,0E0,0E0,0E0,0E0,0E0,0E0,0E0,0E0],"parents":[2147483647,0,0,1,1,2,2,3,3,4,4,5,5,6,6,7,7,8,8,9,9,10,10,11,11,12,12,13,13,14,14,15,15,17,17,18,18,19,19,20,20,21,21,22,22,23,23,24,24,25,25,26,26,27,27,29,29,30,30,35,35,36,36,38,38,39,39,40,40,41,41,42,42,43,43,44,44,45,45,46,46,48,48,49,49,50,50,51,51,53,53,54,54,58,58],"right_children":[2,4,6,8,10,12,14,16,18,20,22,24,26,28,30,32,-1,34,36,38,40,42,44,46,48,50,52,54,-1,56,58,-1,-1,-1,-1,60,62,-1,64,66,68,70,72,74,76,78,80,-1,82,84,86,88,-1,90,92,-1,-1,-1,94,-1,-1,-1,-1,-1,-1,-1,-1,-1,-1,-1,-1,-1,-1,-1,-1,-1,-1,-1,-1,-1,-1,-1,-1,-1,-1,-1,-1,-1,-1,-1,-1,-1,-1,-1,-1],"split_conditions":[9.941016E-1,7.7243686E-1,1.2519015E0,5.1885253E-1,8.785058E-1,1.1075536E0,1.3952345E0,5.52E0,6.694606E-1,1E0,8.2929517E2,9.329731E2,9.3112103E2,8.478531E2,1E0,8.816081E2,-1.2184098E-2,1E0,7.9389246E2,8.1016473E2,2E0,6.583659E2,9.2159677E-1,1.0443171E0,1.0085056E0,1E0,3.32E1,1E0,1.6507924E-2,5.745679E-1,1.5028877E0,-2.9095752E-2,-7.18925E-3,-1.9671831E-2,-1.4139727E-2,1E0,3.96E1,-1.1203546E-2,9.4421185E2,9.0965936E2,7.205454E2,2.38E1,9.468156E-1,8.163921E-1,1E0,6.464624E2,1E0,2.1079937E-3,1.227E2,1.1778308E0,2E0,5.074586E-1,5.221963E-3,5.373205E-1,7.024297E2,7.380617E-3,1.5669756E-2,2.0569507E-2,6.217885E2,-1.5595044E-2,-1.1674154E-2,-1.0202962E-2,-2.6010573E-3,-8.293982E-3,-5.058017E-3,-4.732177E-3,-8.154988E-4,-9.7882645E-3,-6.5722317E-3,-7.7209407E-3,-3.902642E-3,-4.599105E-3,-2.3932513E-3,-3.855347E-3,-1.5903473E-3,-2.142357E-3,6.890861E-4,-4.4221575E-3,3.9386313E-4,7.2485994E-4,3.3574123E-3,7.7628656E-3,4.139948E-3,2.783085E-3,5.6018876E-3,8.497924E-3,5.08693E-3,3.2986999E-3,1.26511445E-2,5.32723E-3,8.934273E-3,9.231876E-3,1.3778101E-2,8.697963E-3,3.0504853E-2],"split_indices":[0,0,0,0,0,0,0,16,0,2,13,13,13,13,2,13,0,2,13,13,2,13,0,0,0,2,8,2,0,10,0,0,0,0,0,2,8,0,13,13,13,11,0,10,2,13,2,0,9,0,2,10,0,10,13,0,0,0,13,0,0,0,0,0,0,0,0,0,0,0,0,0,0,0,0,0,0,0,0,0,0,0,0,0,0,0,0,0,0,0,0,0,0,0,0],"split_type":[0,0,0,0,0,0,0,0,0,0,0,0,0,0,0,0,0,0,0,0,0,0,0,0,0,0,0,0,0,0,0,0,0,0,0,0,0,0,0,0,0,0,0,0,0,0,0,0,0,0,0,0,0,0,0,0,0,0,0,0,0,0,0,0,0,0,0,0,0,0,0,0,0,0,0,0,0,0,0,0,0,0,0,0,0,0,0,0,0,0,0,0,0,0,0],"sum_hessian":[1.6E3,7.56E2,8.44E2,2.25E2,5.31E2,6.3E2,2.14E2,1.9E1,2.06E2,2.5E2,2.81E2,3.06E2,3.24E2,1.5E2,6.4E1,1.6E1,3E0,6.9E1,1.37E2,8.9E1,1.61E2,1.8E2,1.01E2,2.84E2,2.2E1,2.93E2,3.1E1,1.09E2,4.1E1,1.7E1,4.7E1,1.5E1,1E0,1.9E1,5E1,7E1,6.7E1,4.4E1,4.5E1,4.2E1,1.19E2,2.6E1,1.54E2,3.4E1,6.7E1,1.23E2,1.61E2,2E0,2E1,9E1,2.03E2,2.8E1,3E0,4.3E1,6.6E1,3E0,1.4E1,3.2E1,1.5E1,2.4E1,4.6E1,6.6E1,1E0,3.7E1,8E0,3.7E1,5E0,2.4E1,9.5E1,2.1E1,5E0,8.7E1,6.7E1,2.5E1,9E0,2.7E1,4E1,1E1,1.13E2,6.3E1,9.8E1,1.4E1,6E0,4.1E1,4.9E1,1.43E2,6E1,1E0,2.7E1,9E0,3.4E1,1.7E1,4.9E1,1E0,1.4E1],"tree_param":{"num_deleted":"0","num_feature":"20","num_nodes":"95","size_leaf_vector":"1"}},{"base_weights":[3.808198E-4,-7.576485E-2,6.348742E-2,-1.3078536E-1,-5.0793998E-2,3.7069473E-2,1.3623276E-1,-2.2560172E-1,-1.1786988E-1,-7.396998E-2,-3.5148922E-2,1.3687762E-2,6.269146E-2,1.1180139E-1,1.9765845E-1,-3.0552996E-2,-1.8007396E-2,-1.3490532E-1,-1.0164336E-1,-8.878951E-2,-6.279363E-2,-6.888479E-2,-3.0159865E-2,3.8964334E-3,3.1442873E-2,5.433193E-2,9.484877E-2,1.00779936E-1,1.5583763E-1,1.7429163E-1,2.7033108E-1,-1.4455359E-1,-1.0525215E-2,-1.2042645E-1,-8.863217E-2,-1.0644983E-2,-7.64514E-2,-7.627007E-2,-5.4342564E-2,-2.7492682E-3,-7.042067E-2,-4.329872E-2,-2.1752974E-2,-7.5197844E-3,1.6362801E-2,2.4383985E-2,5.7291288E-2,4.416369E-2,7.2086684E-2,6.4774066E-2,1.0390139E-1,7.543875E-2,1.1569339E-1,1.6024427E-2,5.9825345E-3,1.2781191E-1,1.8968037E-1,2.8840268E-2,1.0793432E-2,-1.7274184E-2,-1.2952285E-2,-1.2701638E-2,-7.027303E-3,-1.0397867E-2,-7.2528827E-3,-5.405474E-3,-8.38697E-3,-8.275667E-3,-5.2616647E-3,-3.3500623E-3,-6.0233152E-3,-7.3454618E-3,-3.6919215E-3,-4.5056464E-3,1.1030078E-3,-4.5228825E-4,-3.174601E-3,-2.085281E-3,2.3434695E-4,-1.29114505E-5,2.3593903E-3,1.0962198E-3,3.6512786E-3,2.5593997E-3,6.3935914E-3,3.0416423E-3,5.4909596E-3,4.925882E-3,8.036347E-3,6.76028E-3,9.757161E-4,1.133765E-2,7.414569E-3,5.539085E-3,8.392408E-3,8.133071E-3,1.2435339E-2,4.5090993E-3,1.3640841E-2,5.3957105E-3,1.9195165E-2],"categories":[],"categories_nodes":[],"categories_segments":[],"categories_sizes":[],"default_left":[0,0,0,0,0,0,0,0,0,0,0,0,0,0,0,0,0,0,0,0,0,0,0,0,0,0,0,0,0,0,0,0,0,0,0,0,0,0,0,0,0,0,0,0,0,0,0,0,0,0,0,0,0,0,0,0,0,0,0,0,0,0,0,0,0,0,0,0,0,0,0,0,0,0,0,0,0,0,0,0,0,0,0,0,0,0,0,0,0,0,0,0,0,0,0,0,0,0,0,0,0],"id":18,"left_children":[1,3,5,7,9,11,13,15,17,19,21,23,25,27,29,-1,-1,31,33,35,37,39,41,43,45,47,49,51,53,55,57,59,-1,61,63,-1,65,67,69,-1,71,73,75,77,79,81,83,85,87,89,91,93,95,-1,-1,97,99,-1,-1,-1,-1,-1,-1,-1,-1,-1,-1,-1,-1,-1,-1,-1,-1,-1,-1,-1,-1,-1,-1,-1,-1,-1,-1,-1,-1,-1,-1,-1,-1,-1,-1,-1,-1,-1,-1,-1,-1,-1,-1,-1,-1],"loss_changes":[7.6980863E0,9.9081516E-1,1.6784313E0,2.5016737E-1,1.790576E-1,3.849532E-1,3.2756805E-1,3.959489E-2,4.1849613E-2,2.7715802E-2,4.8583835E-2,5.8637477E-2,7.737446E-2,6.63178E-2,6.326175E-2,0E0,0E0,1.1965156E-2,1.5476108E-2,1.01649165E-2,9.294331E-3,4.7971308E-4,2.8218761E-2,3.1290855E-2,2.0498343E-2,4.1227818E-2,1.0149777E-2,4.34258E-2,3.9523244E-3,1.2950301E-2,9.958267E-3,6.860614E-3,0E0,4.624963E-3,9.016275E-3,0E0,4.272133E-3,2.2431314E-3,7.3127747E-3,0E0,9.472221E-4,1.023756E-2,2.79219E-2,1.5172174E-2,1.2524795E-2,1.5227601E-2,3.6290288E-3,2.18184E-2,1.2668222E-2,1.986064E-3,4.5627654E-3,4.537493E-3,1.5180707E-2,0E0,0E0,5.22694E-3,1.0486841E-3,0E0,0E0,0E0,0E0,0E0,0E0,0E0,0E0,0E0,0E0,0E0,0E0,0E0,0E0,0E0,0E0,0E0,0E0,0E0,0E0,0E0,0E0,0E0,0E0,0E0,0E0,0E0,0E0,0E0,0E0,0E0,0E0,0E0,0E0,0E0,0E0,0E0,0E0,0E0,0E0,0E0,0E0,0E0,0E0],"parents":[2147483647,0,0,1,1,2,2,3,3,4,4,5,5,6,6,7,7,8,8,9,9,10,10,11,11,12,12,13,13,14,14,17,17,18,18,19,19,20,20,21,21,22,22,23,23,24,24,25,25,26,26,27,27,28,28,29,29,30,30,31,31,33,33,34,34,36,36,37,37,38,38,40,40,41,41,42,42,43,43,44,44,45,45,46,46,47,47,48,48,49,49,50,50,51,51,52,52,55,55,56,56],"right_children":[2,4,6,8,10,12,14,16,18,20,22,24,26,28,30,-1,-1,32,34,36,38,40,42,44,46,48,50,52,54,56,58,60,-1,62,64,-1,66,68,70,-1,72,74,76,78,80,82,84,86,88,90,92,94,96,-1,-1,98,100,-1,-1,-1,-1,-1,-1,-1,-1,-1,-1,-1,-1,-1,-1,-1,-1,-1,-1,-1,-1,-1,-1,-1,-1,-1,-1,-1,-1,-1,-1,-1,-1,-1,-1,-1,-1,-1,-1,-1,-1,-1,-1,-1,-1],"split_conditions":[9.805844E-1,7.7243686E-1,1.2417032E0,5.608561E-1,8.593219E-1,1.1075536E0,1.3952345E0,4.156216E-1,7.0060956E-1,7.82038E2,6.819988E2,8.381361E2,8.827642E2,8.708866E2,8.9372253E2,-3.0552996E-2,-1.8007396E-2,8.6414197E2,1E0,1E0,1E0,3.4E-1,1E0,7.42566E-1,9.359054E2,7.503434E-1,1E0,1E0,5.89E0,1E0,1.53E0,1E0,-1.0525215E-2,9.293259E2,7.7285645E2,-1.0644983E-2,2E0,8.178722E-1,2E0,-2.7492682E-3,3.96E1,1.0025091E3,2E0,7.56638E2,1E0,6.8644774E-1,1.0085056E0,1.1591042E0,1E0,2.22437E4,2E0,6.232145E-1,7.024297E2,1.6024427E-2,5.9825345E-3,1.4141334E0,5.956462E2,2.8840268E-2,1.0793432E-2,-1.7274184E-2,-1.2952285E-2,-1.2701638E-2,-7.027303E-3,-1.0397867E-2,-7.2528827E-3,-5.405474E-3,-8.38697E-3,-8.275667E-3,-5.2616647E-3,-3.3500623E-3,-6.0233152E-3,-7.3454618E-3,-3.6919215E-3,-4.5056464E-3,1.1030078E-3,-4.5228825E-4,-3.174601E-3,-2.085281E-3,2.3434695E-4,-1.29114505E-5,2.3593903E-3,1.0962198E-3,3.6512786E-3,2.5593997E-3,6.3935914E-3,3.0416423E-3,5.4909596E-3,4.925882E-3,8.036347E-3,6.76028E-3,9.757161E-4,1.133765E-2,7.414569E-3,5.539085E-3,8.392408E-3,8.133071E-3,1.2435339E-2,4.5090993E-3,1.3640841E-2,5.3957105E-3,1.9195165E-2],"split_indices":[0,0,0,0,0,0,0,0,0,13,13,13,13,13,13,0,0,13,2,2,2,19,2,10,13,10,2,2,16,2,6,2,0,13,13,0,2,10,2,0,12,13,2,13,2,10,0,0,2,14,2,10,13,0,0,0,13,0,0,0,0,0,0,0,0,0,0,0,0,0,0,0,0,0,0,0,0,0,0,0,0,0,0,0,0,0,0,0,0,0,0,0,0,0,0,0,0,0,0,0,0],"split_type":[0,0,0,0,0,0,0,0,0,0,0,0,0,0,0,0,0,0,0,0,0,0,0,0,0,0,0,0,0,0,0,0,0,0,0,0,0,0,0,0,0,0,0,0,0,0,0,0,0,0,0,0,0,0,0,0,0,0,0,0,0,0,0,0,0,0,0,0,0,0,0,0,0,0,0,0,0,0,0,0,0,0,0,0,0,0,0,0,0,0,0,0,0,0,0,0,0,0,0,0,0],"sum_hessian":[1.6E3,7.25E2,8.75E2,2.25E2,5E2,6.43E2,2.32E2,2.5E1,2E2,2E2,3E2,3.37E2,3.06E2,1.68E2,6.4E1,7E0,1.8E1,9.4E1,1.06E2,8.3E1,1.17E2,3.7E1,2.63E2,2.18E2,1.19E2,2.45E2,6.1E1,1.37E2,3.1E1,5.1E1,1.3E1,6.8E1,2.6E1,4E1,6.6E1,3.1E1,5.2E1,4.2E1,7.5E1,2E0,3.5E1,1.01E2,1.62E2,1.14E2,1.04E2,9.5E1,2.4E1,1.58E2,8.7E1,1.6E1,4.5E1,5.3E1,8.4E1,2.9E1,2E0,1.5E1,3.6E1,1.1E1,2E0,2E1,4.8E1,3.4E1,6E0,3.1E1,3.5E1,1.5E1,3.7E1,3.1E1,1.1E1,1.8E1,5.7E1,3.1E1,4E0,9.8E1,3E0,6E1,1.02E2,4.8E1,6.6E1,3.2E1,7.2E1,4.6E1,4.9E1,5E0,1.9E1,7.1E1,8.7E1,2.5E1,6.2E1,1.5E1,1E0,3.2E1,1.3E1,1.8E1,3.5E1,1.9E1,6.5E1,2E0,1.3E1,1E0,3.5E1],"tree_param":{"num_deleted":"0","num_feature":"20","num_nodes":"101","size_leaf_vector":"1"}},{"base_weights":[3.465879E-4,-6.05291E-2,6.4982496E-2,-1.044142E-1,-3.0912945E-2,4.785264E-2,1.5227818E-1,-1.803754E-1,-9.218272E-2,-4.821698E-2,-1.3831341E-2,2.6259031E-2,7.382235E-2,1.3884981E-1,2.4328677E-1,-2.787961E-2,-1.5490852E-1,-1.11091755E-1,-7.933807E-2,-6.42209E-2,-3.946822E-2,-4.424922E-2,-8.838483E-3,2.2226576E-2,7.110105E-2,6.4170286E-2,9.544206E-2,1.2811476E-1,2.004445E-1,9.271399E-3,2.5931997E-2,-1.589122E-2,-5.5228393E-3,-1.3075046E-1,-9.6375935E-2,-1.0848509E-2,-7.3986985E-2,-8.163445E-2,-5.4234695E-2,-5.2016456E-2,-3.2828655E-2,-5.6382394E-3,-2.965776E-2,-2.2807503E-2,2.2367637E-4,8.003914E-3,3.220729E-2,7.464755E-2,3.0273497E-3,4.7374323E-2,7.315922E-2,7.179635E-2,1.0684241E-1,1.0161173E-1,1.3870272E-1,7.808701E-3,2.1326205E-2,-1.5749918E-2,-1.1544038E-2,-1.1294879E-2,-8.56341E-3,-8.564448E-3,-6.4668045E-3,-8.583135E-3,-3.394598E-3,-3.6307983E-3,-6.2242574E-3,-5.310553E-3,-1.5800396E-3,-1.6203526E-3,-3.8726442E-3,-3.8846277E-3,-1.6152991E-3,-2.5273797E-3,1.387767E-3,1.41498E-3,-1.3497933E-3,-4.4775984E-4,1.5932458E-3,6.7857926E-4,3.7993204E-3,4.1922904E-3,7.869191E-3,3.5265617E-3,5.951249E-3,8.001211E-3,4.329184E-3,5.646303E-3,8.747756E-3,1.1305816E-2,7.0006223E-3,1.0452592E-2,3.8599332E-3,1.0758537E-2,1.4857302E-2],"categories":[],"categories_nodes":[],"categories_segments":[],"categories_sizes":[],"default_left":[0,0,0,0,0,0,0,0,0,0,0,0,0,0,0,0,0,0,0,0,0,0,0,0,0,0,0,0,0,0,0,0,0,0,0,0,0,0,0,0,0,0,0,0,0,0,0,0,0,0,0,0,0,0,0,0,0,0,0,0,0,0,0,0,0,0,0,0,0,0,0,0,0,0,0,0,0,0,0,0,0,0,0,0,0,0,0,0,0,0,0,0,0,0,0],"id":19,"left_children":[1,3,5,7,9,11,13,15,17,19,21,23,25,27,29,-1,31,33,35,37,39,41,43,45,47,49,